nep3 2 Li Si 
cutoff 8 4 151 18
n_max 4 4
basis_size 8 8
l_max 4 2 0
ANN 50 0
  1.3051088e+00
  6.7446971e-01
 -1.0719559e+00
  2.0389293e-01
 -6.2587738e-01
 -6.7541701e-01
 -6.6766256e-01
  1.9098313e+00
  1.3922688e+00
 -1.5768343e+00
  9.3732232e-01
 -3.3119762e-01
  1.4863807e-01
  8.6887702e-02
  8.0582328e-02
  1.7277099e+00
  7.7198070e-01
  1.8411466e+00
  1.3761416e-02
  7.7767745e-02
 -5.7344604e-01
  1.6051276e+00
  9.5148194e-01
  5.2899843e-01
 -7.5819665e-01
 -7.6759350e-01
 -1.5591398e+00
  1.9177614e+00
  9.5751429e-01
  9.9166155e-01
 -1.3132101e-01
  2.4596736e+00
  2.6168618e+00
  8.2287711e-01
  3.8109710e+00
  1.2340002e+00
 -1.4560797e+00
 -6.8010390e-01
  8.6611462e-01
  7.3072577e-01
 -3.1073517e-01
 -2.0117681e+00
  2.0775869e+00
  1.1237156e-01
  7.5904268e-01
 -2.0754375e+00
 -2.5985226e-01
 -1.3037640e-01
 -1.7152642e-01
 -5.0010049e-01
  4.0042901e-01
  7.2795391e-01
  9.8914194e-01
 -1.3889395e-01
 -3.2219049e-01
  5.9573430e-01
  5.2573705e-01
 -3.4551722e-01
 -1.0217848e+00
  7.8903311e-01
 -5.2714360e-01
 -1.1870005e+00
 -6.2733638e-01
  1.5868006e+00
  3.6878836e-01
  2.3615196e-02
 -4.7991472e-01
  6.0913736e-01
  2.1520901e+00
  6.5873730e-01
 -1.2077595e+00
  7.0696011e-02
  4.8317873e-01
  8.7307590e-01
 -1.5062031e+00
 -1.9345433e-01
  3.0823631e+00
 -4.1108987e-01
 -2.2025683e+00
 -3.8788211e-01
 -3.8703552e-01
 -1.1602067e+00
 -1.1550843e-01
 -2.8336017e+00
  2.4792080e+00
 -1.3229741e+00
 -1.0428526e+00
 -3.3912152e-01
  7.1405917e-01
 -7.1258903e-01
 -1.7418903e+00
 -1.4073021e+00
  3.0509874e-01
  6.2327795e-02
  1.9777846e-01
  2.4617326e+00
  1.3396633e+00
  9.3790674e-01
 -3.2012284e-01
 -2.0192668e-01
  1.6697198e+00
  8.9413899e-01
  1.4100704e-01
  4.0628082e-01
 -6.8450606e-01
  1.7415481e+00
  2.8390282e-01
 -3.7105161e-01
 -1.7839975e+00
  2.4250934e+00
  1.9625067e+00
  2.3626802e+00
 -2.9690593e-01
  3.7111083e-01
  1.1631550e+00
 -6.0921288e-01
 -1.2162967e+00
 -8.8146353e-01
 -7.1066990e-02
  2.2091985e+00
  2.5924243e-02
  1.0189539e+00
  7.2333045e-02
  8.0477065e-01
  9.5731646e-01
 -9.1060311e-01
 -1.0354905e+00
 -7.2871351e-01
  1.7010458e-01
 -5.6189269e-01
 -8.6561248e-02
  1.3110765e+00
  2.1096904e+00
  1.3120447e-01
 -7.8902251e-01
 -6.4666945e-01
  1.2696359e-01
 -2.6283106e-01
 -7.7424926e-01
 -3.8174038e+00
 -4.8241550e-01
 -1.7776617e+00
  7.0031747e-02
  1.5735570e-01
 -1.2649518e+00
 -3.0734820e+00
 -1.3004802e+00
 -2.8576596e+00
 -1.2419885e+00
 -4.6763220e-01
 -9.8983526e-01
 -1.3074428e-02
  1.0798476e+00
  1.7511685e+00
 -1.7900534e+00
  1.7548572e+00
  5.0881416e-01
  4.1903219e-01
  1.6469599e+00
 -1.6835145e+00
 -1.6900420e+00
 -6.8058467e-01
  4.8098834e-03
 -5.3764766e-01
  4.8127046e-01
 -5.0658405e-01
  1.8552321e-01
  3.4365875e-01
  2.4380073e-02
  3.0568460e-01
 -1.5098756e-02
  3.4790593e-01
  3.4950612e+00
 -1.0304207e-01
 -1.2793773e+00
 -6.7257029e-01
  2.4647632e+00
 -7.7242583e-01
 -1.2767331e-01
  2.4667913e-01
  1.2862149e+00
 -2.4112520e-01
  1.8954345e+00
 -4.2161641e-01
 -1.0662358e+00
 -9.6482706e-01
 -7.9152119e-01
  1.2592223e-01
  1.2252843e+00
  1.3309598e+00
  2.0821124e-01
  6.7605090e-01
  2.6605186e-01
  2.4596740e-01
  2.6858008e-01
  1.1115015e+00
 -4.1572398e-01
 -8.4827907e-02
  2.0091105e+00
 -2.1997771e+00
  2.3592176e+00
 -9.3882418e-01
  1.2612221e+00
  1.7430665e-01
 -8.2315046e-01
  1.3715088e+00
 -4.3393907e-01
  7.5312734e-01
  1.7846953e+00
 -5.5850975e-02
  1.4351472e+00
 -1.7873058e+00
 -3.7568073e+00
  1.0806285e+00
 -9.5244652e-01
 -1.9690022e-01
  2.3202896e-01
 -4.9961963e-01
 -3.5192603e-01
 -7.3336884e-02
  1.2063677e+00
  3.8754323e-01
  1.3173827e+00
  1.8345009e+00
  1.2553583e+00
 -8.9552540e-01
 -7.5994730e-02
  1.3684762e+00
 -1.2052038e+00
 -2.6639977e-01
  5.7652790e-02
  7.6383874e-02
  6.3589901e-02
 -2.9206073e-01
 -1.6789883e-01
  8.6583793e-01
  1.1130828e+00
 -1.6386044e+00
 -2.1768496e+00
 -4.5491597e-01
  3.3645144e-01
  4.4713765e-03
 -3.3780432e-01
 -3.6437353e-01
 -4.5427889e-01
 -1.9224104e+00
  3.3418962e-01
  4.3997419e-01
  1.5054882e-01
  2.6354730e-01
  2.4886638e-02
  8.3446193e-01
 -4.8417807e-01
  1.8330389e-01
  6.3464904e-01
 -2.1002969e-01
 -4.6801943e-01
  1.1092417e+00
  5.8827204e-01
 -3.7673470e-01
 -1.2183631e-01
  1.7622029e+00
  6.2209189e-01
  2.7551579e-01
 -5.9079653e-01
  1.0509559e+00
  5.6268960e-01
  1.3427230e+00
  1.1792327e+00
  2.1946385e+00
 -5.4094064e-01
  1.3011515e+00
 -3.0067549e+00
  6.6235520e-02
  9.0232921e-01
  1.8772203e-01
 -4.8266508e-02
 -5.0854221e-02
  3.4474814e-01
  7.0643252e-01
  9.6755199e-02
 -3.7183166e+00
  1.6234815e+00
 -1.1760637e+00
  5.6469667e-01
 -1.7700065e-02
 -3.1550178e-01
 -8.1166172e-01
  6.4386874e-01
  1.3559169e+00
  8.6534512e-01
  1.0370253e+00
 -4.8637059e-01
  4.0074718e-01
 -1.2589282e-01
 -3.1594586e-01
  6.2087339e-01
  9.9117708e-01
  6.6102648e-01
 -1.5227274e+00
 -1.6982584e+00
  2.7729166e-01
 -1.2067869e-01
  6.3975084e-01
 -7.6491541e-01
 -1.6884556e-01
  5.4983944e-01
  5.7285464e-01
  3.1863064e-01
 -8.1661946e-01
 -1.1799793e+00
  3.5233695e-02
 -3.3891983e+00
  2.3904929e-01
  1.9486606e-01
  2.7344537e+00
 -3.2386568e-01
  2.0919447e+00
  4.5145687e-01
 -2.1135297e+00
 -7.3044218e-02
  2.5162140e-01
 -1.0257407e+00
  1.2697992e+00
 -2.9674846e-01
 -4.8190302e-01
 -5.3799874e-01
 -1.6508713e+00
  5.1179928e-01
 -1.3901207e+00
 -7.7802479e-02
 -1.8659397e+00
  2.7630472e-01
 -1.9559010e+00
 -1.8180875e-01
 -1.3850675e+00
 -9.0691125e-01
  7.8973264e-01
 -1.2456707e+00
 -7.9170924e-01
  9.4453722e-01
 -1.1865180e+00
 -2.6435366e+00
  3.0086923e-01
 -9.8387975e-01
  1.6608639e+00
 -1.1429015e-01
 -1.0743932e+00
 -1.0860214e+00
  5.4297674e-01
 -2.4435690e-01
  1.4675246e+00
 -1.4794821e-01
  9.7175020e-01
 -1.2147909e-01
 -1.1613794e-02
  8.1736439e-01
 -1.5529862e-01
  1.9603986e-01
  9.7865558e-01
 -1.0377306e-02
  9.8986393e-01
 -1.6949999e+00
 -8.3890241e-01
  4.3430293e-01
 -4.6064365e-01
  1.0871351e+00
 -9.4302678e-01
  1.3191551e-02
  1.1446257e+00
  2.4955428e+00
  7.4539483e-01
  1.9014654e-01
 -1.1072954e+00
  2.8826496e-01
 -1.3930457e+00
 -2.5985703e-01
  3.9517820e-01
 -5.3934440e-02
  8.5096337e-02
 -1.7436093e+00
  6.2175816e-01
 -1.5985374e+00
  6.3263714e-02
 -1.0447233e-01
 -1.4673321e-01
 -1.0790488e+00
  4.7805604e-01
 -1.2033668e-01
 -1.3397515e-02
 -8.0909759e-01
 -1.2221222e+00
  9.6941257e-01
  2.4233582e+00
  4.0349865e-01
  8.7632573e-01
  6.4052236e-01
 -1.6668133e+00
  3.1285721e-01
 -1.6896220e+00
 -3.4767178e-01
 -1.2322974e+00
  1.6999131e+00
  3.9172214e-02
  8.7128854e-01
 -2.8202345e+00
  6.3213199e-02
  1.7772484e+00
 -2.2487956e-01
  1.0824609e-01
  1.0865019e-01
 -1.4686249e-01
  5.5058837e-01
  1.4719324e+00
 -1.0362725e+00
  4.9064946e-01
 -8.9616454e-01
 -6.5330511e-01
  2.8070116e+00
  7.4809253e-02
 -2.0359914e-01
  3.1567958e-01
 -3.2353812e-01
  1.0464387e+00
  4.3409172e-01
 -5.8056247e-01
  2.2331924e+00
  2.2205741e+00
 -3.7509367e-01
 -7.7292371e-01
  1.6001943e-01
 -8.7500471e-01
 -1.7330576e+00
  9.1487843e-01
  6.4690334e-01
  1.7248182e+00
 -9.6070099e-01
 -4.9388576e-01
 -6.1666876e-01
  1.3667381e+00
 -4.3786693e-01
  2.5806287e-01
 -7.3899120e-01
  7.7718306e-01
 -1.0492565e-01
 -1.8160356e+00
 -1.2187358e+00
 -2.2118142e+00
  4.5754683e-01
 -1.1025801e-02
  2.5702524e+00
  1.5928867e-01
  5.7115686e-01
  8.8436854e-01
 -5.0317204e-01
  4.1425392e-02
 -8.8308603e-01
 -9.9198198e-01
 -5.5199623e-01
  3.7320352e-01
  1.1411616e+00
 -1.1492541e+00
 -2.9380795e-01
 -3.3315727e-01
 -4.6823468e-02
  4.3520847e-01
  5.2338946e-01
 -4.9062002e-01
 -3.5503343e-01
  1.6173550e+00
  7.0531601e-01
 -1.0966945e-01
 -6.7789578e-01
  7.5632262e-01
 -5.5410081e-01
  8.8197803e-01
  2.6972935e-01
  6.2713444e-02
  2.2656870e-01
 -1.3658462e+00
  7.7702069e-01
  5.8024740e-01
  3.0553670e+00
 -1.4974804e+00
 -2.7294698e+00
  2.6588875e-01
 -7.7605951e-01
  7.5678200e-02
 -5.5136508e-01
  2.3543206e-01
 -3.0793446e-01
  2.1484831e-01
 -1.4928648e+00
  6.2201607e-01
  1.3013080e+00
  9.0050995e-01
  5.3848827e-01
 -3.3703297e-02
  7.8761506e-01
  1.0299019e+00
  7.4325365e-01
  1.2486462e-01
 -6.7250061e-01
 -9.4770831e-01
 -5.3432882e-01
  3.9312533e-01
 -1.1216251e+00
  6.4052755e-01
  7.9184759e-01
  6.7486626e-01
 -2.0954413e+00
 -1.5720031e+00
  1.7936550e+00
 -5.2721798e-02
  3.6016467e-01
  6.2387627e-01
 -6.9574855e-02
  3.4988573e-01
 -2.3541868e+00
 -1.2618054e+00
 -4.1759127e-01
  1.0096821e+00
  1.4970443e+00
 -2.6580799e-01
  1.4156137e+00
 -1.4565041e+00
 -6.2565750e-01
 -3.2369840e-01
  1.1069357e+00
  2.0403473e-01
  1.0212046e+00
 -4.3438739e-01
  9.2186058e-01
  1.2116299e+00
 -1.1649419e+00
  2.2462633e+00
 -5.5860561e-01
  1.4506484e+00
 -8.6989135e-01
 -9.4760716e-01
 -1.2882611e+00
  3.4186763e-01
  1.9559978e-01
  5.8184153e-01
 -6.5481430e-01
  1.2011095e+00
 -2.2523303e+00
 -3.7966937e-01
 -2.8023309e-01
 -6.0980308e-01
  9.8493272e-01
  7.1779180e-01
  6.8504363e-01
 -1.9977118e-01
  3.2434604e-01
 -2.3777943e+00
 -2.0806911e+00
  1.0291021e+00
  6.3645959e-01
 -8.2436615e-01
  8.9869469e-01
  2.0224357e+00
 -2.7242810e-01
  2.7595973e-01
  2.1198208e+00
  1.4691522e+00
  1.6916811e+00
  3.2570291e+00
 -1.6479552e+00
 -7.6465368e-02
  1.3675448e-01
 -2.4912674e+00
  1.5485927e-01
 -7.1771972e-02
 -1.6530888e+00
  1.6670444e+00
 -4.4135174e-01
  1.2904273e-01
  1.1303432e+00
 -1.4297226e-01
 -6.6156042e-01
 -5.0256670e-01
 -4.5250884e-01
  1.6055864e-01
 -3.2511443e-01
 -7.0583290e-01
  5.8586232e-02
  8.7859809e-02
  6.9603997e-01
 -2.2535501e-01
  5.9437531e-01
  6.7302816e-02
 -1.0797241e+00
 -2.8945628e-01
 -1.5973505e+00
 -6.2132055e-01
  1.0641217e+00
 -6.2882417e-01
  1.1734186e+00
  1.8693080e+00
  2.5481317e+00
  2.2127884e-03
  5.9399343e-01
 -7.8643396e-02
 -3.0407020e-01
 -2.3580040e-01
 -1.0459098e+00
 -1.8595092e-01
 -5.6004447e-01
  2.3674126e+00
  1.7132515e+00
  1.1160500e+00
  1.4489645e-01
  3.0920043e+00
 -8.3428884e-01
 -3.6095467e-01
 -5.0458696e-02
 -1.7119065e-02
  8.2282567e-01
  3.4778619e-01
  1.1320372e-01
 -6.1746186e-01
 -5.2457854e-02
  3.9653294e-03
 -4.3946424e-01
 -8.0457225e-02
 -1.1758312e+00
 -8.9252961e-01
  3.6751896e-02
  1.6683309e-01
  1.5095149e-01
  1.5427165e+00
 -2.7138683e-01
  9.8635519e-01
  1.9028249e-01
 -1.0005198e+00
 -2.3946245e-01
  1.3414716e+00
 -1.5168122e+00
 -8.4098011e-02
 -5.0578582e-01
  2.0035527e+00
 -6.8367881e-01
  1.0035161e+00
 -8.9758676e-01
 -2.0170811e-01
 -5.7384807e-01
  1.4801406e+00
 -1.9213407e+00
  1.3324860e+00
  6.1672306e-01
 -1.2265992e+00
 -1.9538852e+00
  8.5867065e-01
  4.8011327e-01
  1.7797811e+00
 -8.2914966e-01
 -9.6193796e-01
 -5.6175494e-01
  5.0256062e-01
 -5.6184810e-01
  8.9147651e-01
 -7.4446136e-01
  6.6895437e-01
  3.3279145e-01
  7.8953856e-01
  8.7415054e-02
 -9.1491985e-01
 -4.2681718e-01
 -1.6830739e+00
 -1.6315305e-01
 -5.1974201e-01
  1.1444835e-01
 -1.0271262e-01
  7.2287744e-01
 -7.0956573e-02
 -2.8363986e+00
 -1.2975419e+00
  4.0837377e-01
 -9.3025118e-01
  9.9304205e-01
 -1.6344858e+00
 -7.7039021e-01
  1.5452635e+00
  1.3841457e+00
  3.4901788e+00
  1.9380122e-01
 -5.1090717e-03
  9.0779251e-01
  2.2840157e+00
 -4.5045834e-02
  1.0818541e+00
 -8.5451230e-02
 -3.8998567e-02
 -6.9831073e-01
  2.0661952e+00
 -1.0743599e+00
 -2.0898674e+00
 -1.2603312e+00
 -2.1439397e+00
 -7.1340680e-01
 -5.9108305e-01
 -1.2096710e+00
 -7.7194697e-01
 -6.0596335e-01
  2.1037529e+00
 -3.3169982e-01
  1.4453955e+00
  5.4726005e-01
 -2.6621726e-01
  6.6283309e-01
 -1.2091680e+00
  4.5352751e-01
 -1.4290742e+00
  3.3943576e-01
 -1.7856793e+00
 -7.1915062e-03
 -5.8978838e-01
 -2.7516076e-01
 -2.6610265e+00
 -2.0950964e-01
  2.2188945e+00
  1.7400891e+00
 -1.3770903e+00
 -2.3485932e+00
 -1.9641809e-01
  5.0315738e-02
 -1.2459282e+00
  4.6410292e-02
 -1.5602694e-01
 -6.6945106e-02
  2.0303534e-01
 -1.0689199e-02
 -1.0211484e+00
  6.8667732e-02
  5.3096277e-01
 -5.7867908e-01
  2.5639433e-01
  9.3357432e-01
 -8.3554775e-02
 -1.1895937e+00
 -4.5313379e-01
 -5.8810093e-02
  1.2112253e+00
 -2.5645724e-01
 -2.5945485e+00
 -2.1595951e-02
  6.0848033e-01
  2.6621395e-01
  1.0532053e+00
  7.1406692e-01
 -5.0431013e-01
  9.9777353e-01
 -7.4894631e-01
  5.3928155e-01
  7.8361082e-01
 -1.9027710e-02
  1.3401681e+00
 -2.0588064e+00
 -4.2902309e-02
  7.8917903e-01
  2.5355709e+00
  2.7827868e+00
 -4.9282905e-01
  9.9021994e-02
 -2.4192362e+00
  1.5178504e+00
 -3.5672417e-01
  3.7947381e-01
  2.9127806e-02
 -5.4294348e-02
  1.3407234e+00
  8.2081199e-01
 -7.5791264e-01
  3.7520507e-01
 -5.3046739e-01
  1.1717814e+00
  7.2276264e-01
  1.8066522e-03
 -1.3060616e-01
  1.7127620e+00
  8.5182726e-01
  7.2083855e-01
  1.3905754e+00
  1.5631258e-01
 -2.5134940e+00
 -2.9694131e-01
  6.4573652e-01
  9.4350725e-01
 -2.5578549e+00
  1.1266001e+00
 -3.3500138e-01
 -1.6985998e+00
  5.8624756e-01
  4.3098709e-01
  1.1669237e-01
 -1.5627273e+00
 -5.9066230e-01
 -1.6260883e+00
  1.0149695e+00
  4.5090732e-01
 -1.5331753e-01
  1.8114983e-01
 -8.1401214e-02
 -1.9326213e-01
  2.8791875e-01
 -1.7936118e-02
  9.6934801e-01
 -1.5513386e+00
 -3.8291088e-01
 -4.4945043e-01
  4.5020500e-01
 -8.0919993e-01
  1.1560109e+00
 -1.4463542e+00
 -1.0692141e+00
  1.9495544e+00
 -2.3776160e-01
 -1.0839714e+00
 -1.4204010e+00
 -1.1471046e-01
 -4.2080235e-01
 -2.1935806e+00
 -2.7584493e+00
 -5.0145078e-01
 -2.1404663e-01
 -2.8827482e-01
  7.6511931e-01
 -6.5069526e-02
  6.1248565e-01
 -4.7349870e-02
  2.8855440e-01
  1.0547051e+00
  1.5300306e+00
  1.1736190e+00
  2.1692526e-01
  8.4180522e-01
  9.7435498e-01
 -1.9691371e+00
 -1.3131976e+00
  1.7126958e+00
 -3.1835049e-01
  7.8740501e-01
 -9.5274918e-02
 -5.7289791e-01
 -1.6659293e-01
 -1.2537086e+00
 -1.1902466e+00
  2.3765114e-01
 -8.5730517e-01
 -3.8505533e-01
  1.2204565e+00
  1.6509512e-01
 -4.7591996e-01
 -7.5088769e-01
  1.1609995e-01
 -9.5110154e-01
 -4.1416463e-01
 -1.2745851e+00
  1.5179793e+00
  1.4981548e-01
  1.0994093e+00
 -1.2876524e+00
  1.8464825e+00
  3.5461527e-01
 -9.1583145e-01
 -2.2131715e-02
  4.0073764e-01
 -1.3337263e-01
 -3.2694316e-01
 -2.2493763e-01
 -2.7612264e+00
  1.0626781e+00
 -1.3216180e+00
 -2.1054699e+00
  1.2509823e-02
 -3.1306803e-01
 -1.9020608e-01
 -7.6313370e-01
 -4.0921274e-01
  6.1859852e-01
 -7.4870932e-01
  1.0363607e+00
  2.1195753e-01
 -1.6603321e-03
 -4.2025021e-01
 -3.9929590e+00
 -6.1665195e-01
  8.3100492e-01
 -4.2830518e-01
 -7.3380196e-01
 -1.3885280e+00
  7.9200006e-01
 -1.7609636e-01
 -3.3677262e-01
 -7.1188323e-02
  2.4509946e-01
  1.7479529e+00
 -5.3489655e-01
  5.4309052e-01
  1.0377282e+00
 -4.0430433e-01
 -8.7684885e-02
  1.6005220e+00
  1.7717750e+00
 -2.1115806e+00
 -1.0683456e-01
  3.6007669e-02
  1.2023448e+00
  1.9578789e+00
 -5.0509543e+00
 -8.9120054e-01
  8.9935884e-02
 -2.6974297e-01
  4.6531034e-01
  1.5736818e+00
 -1.9945161e-01
  1.3614339e+00
 -3.3826044e-01
  1.6888094e-01
 -4.0553432e-02
 -1.4612380e-01
 -1.2302268e+00
  2.6313281e-01
  7.3112893e-01
  7.6862141e-02
  6.0441613e-01
 -7.5896007e-01
  1.0977283e+00
  8.1160158e-02
  9.5037407e-01
 -6.0544148e-02
  5.1118600e-01
 -1.2497112e+00
 -1.8847413e+00
 -2.0476797e+00
 -1.0137097e+00
 -6.4831150e-01
 -5.6082696e-01
  1.2575352e+00
 -1.8254328e+00
 -3.6850893e-01
  1.6988983e+00
 -1.1168714e+00
  1.2362732e-01
  8.5160267e-01
 -1.8094897e+00
 -5.9254676e-01
 -9.0238303e-01
  4.1845262e-01
  6.9286096e-01
 -4.4249994e-01
 -1.2521024e+00
  9.7945583e-01
  4.1342032e-01
 -1.2691503e+00
  1.0497979e+00
 -2.6537125e+00
 -6.3248016e-02
 -3.2523286e-01
 -7.2175336e-01
  6.4066076e-01
  7.2507071e-01
  1.4019865e-01
  2.4803254e-01
  7.2490191e-01
 -1.7679349e+00
 -9.3745336e-02
 -3.9418200e-01
  9.4596714e-01
  7.3564255e-01
  1.1323547e-01
 -3.6290183e+00
  2.6360899e-01
 -7.6313680e-01
  1.3799693e-01
  8.6613655e-01
 -1.2922002e-01
 -1.6498556e+00
 -1.0768113e+00
 -1.0424290e+00
  2.5992039e-01
 -1.9534320e-01
  3.4422073e-01
  2.3348643e-01
  9.5631719e-01
  1.6188507e+00
  2.9030055e-01
  2.0690000e+00
  3.5520959e-01
  3.6839411e-01
 -1.0848256e-02
 -9.3799317e-01
  2.2821300e-01
  2.9991443e+00
  2.4142744e-01
 -1.9190198e-01
 -4.1724676e-01
 -1.3284377e+00
  3.2529846e-01
  5.5709288e-02
  5.2635115e-01
 -1.8413585e+00
  2.0739864e-01
 -6.7256838e-01
 -1.7520987e+00
 -7.1692848e-01
  8.0882311e-02
 -1.1883069e+00
 -5.7763332e-01
 -1.1500165e+00
  1.7008092e-01
  1.3393129e-01
  2.9620120e-01
 -2.1887293e+00
  1.7033826e+00
 -4.3805134e-01
  1.0318221e+00
 -3.2065958e-01
 -1.5660295e+00
 -5.1615137e-01
  2.1898147e-01
  8.3379149e-02
  1.5624350e+00
 -3.3984199e-01
  3.7492922e-01
  1.1678942e+00
  9.2837907e-02
  1.4210865e-02
  9.7939886e-02
  3.6199656e-01
 -8.0755532e-02
 -3.4030694e-01
  1.7180189e-01
 -2.6665189e+00
  3.1840339e-01
  1.7719924e+00
  7.8052968e-02
  1.2521124e-01
  5.3009099e-01
  1.1491480e-01
 -9.9053025e-01
 -1.0793672e-01
 -4.2511159e-01
  6.3370502e-01
 -1.4997946e+00
 -6.5659392e-01
  1.4339767e+00
 -3.6178991e-01
 -2.9038960e-01
 -1.8282696e+00
  2.4812899e+00
 -1.2050384e-01
  5.4092973e-01
 -7.9712039e-01
  1.6100736e+00
  4.3982458e-01
 -3.4594223e-01
 -1.2197229e-02
  3.0702874e-01
  1.9376527e-01
  3.0122942e-01
 -2.1180418e+00
  1.5163480e+00
 -2.0160956e+00
 -5.0960875e-01
 -1.0660869e+00
 -3.1381363e-01
 -1.1849546e-01
  2.1197236e-01
  1.4114431e-01
  2.4906812e+00
 -1.4028971e-01
 -1.9859076e-01
 -2.4712710e+00
 -2.0759256e+00
 -9.8601806e-01
 -2.7523994e-01
  4.4963950e-01
 -2.3750208e-01
  1.1087720e+00
 -1.0628748e+00
 -1.1015041e+00
 -2.7069712e-01
 -5.8131438e-01
 -1.6071179e+00
  4.6621293e-02
 -1.5074613e+00
 -3.0883110e-01
 -3.6290735e-01
 -7.0440471e-01
 -8.7195164e-01
  1.4134942e+00
 -8.5894859e-01
  1.6380662e-01
  2.3765740e+00
 -2.3611319e+00
  2.4101546e-01
  9.7381824e-01
  6.5062630e-01
  9.0527809e-01
  1.7053992e+00
 -1.4330292e+00
 -6.7903841e-01
 -1.9484839e-01
 -6.6820699e-01
  7.3013276e-01
  1.0428092e-01
 -1.4289627e+00
 -6.9146645e-01
 -3.6830252e-01
 -2.4029341e+00
  8.6505152e-02
  2.3828418e+00
 -9.5942712e-01
 -2.9657501e-01
 -2.3011322e+00
  2.5714760e+00
  9.6153063e-01
  5.4726171e-01
  4.8343778e-01
 -5.5847692e-01
  7.9569125e-01
  9.6228093e-01
  4.4195315e-01
  2.4724441e+00
 -3.6572158e-01
 -1.3149086e-01
 -8.1489319e-01
 -2.0151727e+00
 -7.1760511e-01
  1.0912167e+00
 -3.0117697e-01
  7.6731974e-01
  1.0603368e+00
  1.0991371e+00
  4.4021358e+00
 -3.0039808e-01
 -1.8051408e-01
  2.8684497e-01
  9.4635320e-01
 -3.4705356e-01
 -6.3196093e-02
  1.6351059e-01
 -2.9677100e+00
  6.9237554e-01
 -1.1290923e+00
  4.5633167e-02
  5.0019413e-01
 -1.0202519e-01
 -7.4031085e-01
 -6.3687360e-01
  1.9537072e+00
  4.7104335e-01
  6.9308919e-01
 -7.4493551e-01
 -4.5749459e-01
 -9.5509464e-01
  9.8487228e-01
 -3.6559200e+00
 -1.2383872e+00
  9.6379262e-01
 -2.2391722e-01
  1.1958563e+00
  4.3689478e-02
 -3.9736331e-01
  6.5302032e-01
  4.5646712e-01
  1.0075980e+00
 -5.0573725e-01
  3.1613502e-01
 -1.0225636e-01
 -9.9127686e-01
  3.6473000e-01
 -2.5426800e+00
  1.0009262e-01
 -1.8818970e+00
 -3.2779984e-02
  1.6881058e-01
 -6.2455988e-01
 -1.1845937e-01
  9.7006035e-01
 -3.9983952e-01
  1.6682002e-01
 -7.8679001e-01
 -9.1024595e-01
  7.6222265e-01
 -5.7555780e-02
  1.0404471e+00
  2.1376696e+00
 -3.9020151e-02
 -1.2468332e+00
  1.5314557e-01
 -3.9862123e-01
 -4.7880965e-01
 -1.8123820e+00
  1.4794691e+00
  1.1799620e+00
 -2.3369545e-02
 -5.3682089e-02
  1.6958472e+00
 -1.0689967e+00
  8.4557846e-02
 -3.1084737e-01
  4.8759907e-02
 -1.9794451e-01
  9.8314238e-01
 -1.2872280e+00
 -6.6203684e-01
  9.9611127e-01
 -7.5540239e-01
  8.2704175e-01
 -2.8531280e-01
 -3.1124562e-01
  6.6547614e-01
  5.8188683e-01
 -3.9845645e-01
  6.3696694e-01
 -4.8180073e-01
  4.3737420e-01
 -9.9494863e-01
 -9.3042928e-01
  1.7376573e+00
  1.8089268e-01
 -2.4883017e-01
  1.5894907e+00
  1.3001497e+00
  1.5215184e-01
  2.2581221e-01
 -5.0860745e-01
  3.8045174e-01
 -8.4534204e-01
 -9.3266025e-02
 -1.2237135e+00
  9.0276462e-01
  1.1004908e+00
  4.2407197e-01
  6.1723173e-02
  6.5850399e-02
  5.1534611e-01
  6.2251741e-01
  5.2433562e-01
 -4.1633248e-03
  1.7701250e+00
 -6.9952655e-01
  9.3914109e-01
  1.7849047e+00
  7.0583498e-01
  1.2972715e+00
  2.8494579e-01
  8.0352128e-01
 -8.1810063e-01
 -1.5338600e-02
 -8.5514329e-02
 -3.1935951e-01
  5.5634612e-01
  4.6246511e-01
  2.1394570e+00
  1.0048943e-01
  5.4719710e-01
 -3.0989966e+00
 -1.9542716e+00
  7.1741831e-01
 -1.0599445e+00
 -3.1577941e-02
  6.2903607e-01
 -2.7186319e-01
  8.1688724e-02
  2.7937806e-01
 -6.4513758e-02
  2.7819288e-01
 -5.1077235e-01
  4.9485585e-01
  6.4390898e-01
  5.8306378e-01
 -3.4298474e-01
 -8.9059412e-01
  5.3845663e+00
 -8.8202351e-01
  6.8060565e-01
  7.0844835e-01
 -2.0412617e+00
 -9.8421112e-02
  7.2123486e-01
  1.4765807e+00
 -8.2124785e-02
  1.3869362e+00
 -1.7051036e-02
 -1.3410606e+00
 -1.0889590e+00
 -1.7568211e-01
 -2.6645715e+00
  1.0543810e+00
 -4.0018854e-01
 -5.8627194e-01
  3.0721393e-01
 -9.1181540e-01
  2.5405523e-01
  2.0929427e+00
  1.2360096e-02
  1.3236297e+00
 -2.3500143e-01
  3.7906295e-01
  1.1647135e-02
  3.2176313e+00
  9.9418396e-01
  9.1572487e-01
  1.3351497e-01
 -7.2665739e-01
 -1.1815988e-01
  6.7820139e-03
  1.8214999e+00
 -9.4262636e-01
 -1.4505290e+00
  5.8334541e-01
 -1.6971366e-01
 -1.9345456e+00
  6.5473187e-01
 -4.4207427e-01
 -1.0614964e+00
 -1.0965810e+00
  1.5679419e-01
 -5.5814195e-02
  7.6484752e-01
  1.2290337e+00
 -3.0796081e-02
 -4.3630815e-01
 -1.2033453e+00
 -5.4197961e-01
  2.1725178e+00
  1.1523546e+00
 -2.0222909e+00
 -8.1178671e-01
 -1.0532873e+00
 -5.1447856e-01
 -4.7265354e-01
 -1.3954662e+00
  3.3514205e-02
 -3.5313401e-01
  1.4542781e+00
  1.5802568e-01
 -7.7989668e-01
  3.2506031e-01
  2.8039411e-01
  9.6044868e-01
  4.2321074e-01
  2.0271602e+00
 -1.2461819e-01
 -1.1118016e+00
 -1.0598934e+00
 -8.2403082e-01
 -1.1223961e+00
  4.1131479e-01
 -1.1895485e-01
  2.3012228e+00
 -2.3923288e-01
  1.8575351e-01
  5.7206541e-01
 -6.5794325e-01
 -1.2917538e-01
 -9.2382222e-02
  1.7592256e+00
  2.2700234e-01
  3.3222419e-01
 -1.3843467e+00
  1.1490011e+00
 -3.1730458e-01
  7.5938791e-01
 -1.3165459e-01
  1.8542311e-01
 -3.3232635e-01
  7.2305578e-01
 -2.0928009e+00
  2.3880143e+00
  2.6239818e-01
 -7.8422421e-01
  2.8787279e-01
  9.5071149e-01
 -5.7921838e-02
  4.9396437e-01
  2.6988816e-01
 -8.6813635e-01
  1.5548229e+00
 -3.6712092e-01
 -3.8344511e-01
  3.8112187e-01
  3.4195986e-01
 -1.1773534e+00
  1.6342677e+00
  1.8038873e-02
 -7.2313219e-01
 -1.2990453e+00
 -7.8372955e-02
  2.0168612e+00
  1.3546208e+00
 -2.5087330e+00
  1.1932287e+00
 -4.8795456e-01
 -6.2691706e-01
  2.4789409e-01
  1.7120516e+00
  1.6564015e-01
  2.5045586e+00
  3.0089471e-01
 -8.5007703e-01
  7.5636715e-01
  6.4693224e-01
  1.1690736e-01
  3.0470425e-01
 -1.5484196e+00
  1.2866117e+00
  7.9758477e-01
 -5.6585443e-01
  1.4760594e+00
  4.2097616e-01
  3.0876499e-01
  3.4452981e-01
  8.8968003e-01
  3.3220649e-03
 -2.2875004e+00
  1.9165638e-01
 -2.4407780e-01
  4.9982730e-02
  5.0088876e-01
  1.0334401e+00
  5.4837310e-01
  6.9885486e-01
  1.2059335e-01
 -3.6865133e-01
 -4.9746302e-01
  5.6731534e-01
  5.7700026e-01
  1.2200855e-01
 -7.4684381e-01
  5.0790453e-01
  2.4030590e+00
 -1.6617948e+00
  8.9054370e-01
  1.3763690e+00
  5.4891981e-02
 -1.3585966e+00
  2.4482943e-01
 -1.2251551e+00
 -4.7742307e-02
 -1.3848975e+00
  3.2827813e-02
  2.6645312e-01
  2.4498045e-01
 -5.4977670e-02
  1.5031977e+00
 -3.0701317e-02
  2.9438829e+00
  4.9004567e-01
  1.2468147e+00
  1.4883620e-01
 -1.0754106e+00
 -1.3859087e+00
  1.2815118e-02
  4.8315540e-01
  7.4092424e-01
  2.5140042e+00
  6.0448492e-01
 -1.1095370e-01
 -4.1702175e-01
  3.1243944e-01
  7.3900098e-01
 -1.6927732e+00
  8.3250850e-02
 -5.0759763e-02
 -2.6176664e-01
  4.4726110e-03
 -4.6868840e-01
  3.9326960e-01
 -1.1159339e+00
 -1.3664515e+00
  4.0094638e-01
  1.0794015e+00
 -1.7407081e-01
  2.0788358e-01
 -1.9539849e-01
 -8.7136471e-01
  2.1512530e+00
  1.6874430e+00
 -7.3384118e-01
  1.7155523e+00
 -1.4589460e-02
  2.6137018e-01
 -3.2718027e-01
  7.5367332e-02
 -6.9936478e-01
  1.5640273e+00
 -7.6704097e-01
  5.4925728e-01
  3.9960151e+00
  1.6005090e-01
  1.3285974e-01
  6.5147471e-01
 -6.3800853e-01
 -4.3692741e-01
 -5.8736198e-02
  5.2763140e-01
  6.3960862e-01
 -8.4036630e-01
  1.4772338e-01
  2.5384051e-01
 -4.9013942e-03
 -3.7567765e-01
  1.1771894e+00
 -1.2407992e+00
  4.7884566e-01
  1.2427082e-01
 -1.0189608e-02
  5.8470082e-01
 -3.8443480e-02
 -9.5287067e-01
  4.1255313e-01
  3.3775359e-01
 -1.9510074e-01
  2.6915082e-01
 -1.3086256e+00
  6.6644454e-01
  2.7264571e-01
 -2.0467815e-01
  4.4844520e-01
  1.5613301e+00
  5.1178151e-01
  8.6445920e-02
  4.1341543e-01
 -1.5816567e+00
  2.1866128e+00
  5.5987507e-01
  3.6710565e+00
  1.2792491e+00
 -8.4585166e-01
 -3.8142422e-01
  1.2810912e+00
 -2.3871562e-01
  1.7850477e-01
  8.4163201e-01
  1.2931678e+00
 -1.0994605e+00
 -1.3887101e+00
 -1.3553656e+00
  4.6339911e-01
 -7.2483665e-01
 -1.2855365e+00
 -1.2556616e+00
  1.5655684e+00
  1.0272530e+00
 -1.5919827e-02
 -1.2860031e-01
  1.8312688e+00
  1.8436663e-01
 -9.0046395e-03
  1.1067970e+00
 -1.0571635e+00
 -7.7265453e-01
 -3.1125110e-01
  4.4627652e-01
  1.1526913e-01
  4.1905288e-03
  3.4057516e-01
  3.9708931e-03
  6.3433461e-03
 -8.9023292e-02
  3.7313110e-01
 -9.0260550e-02
  1.5617539e+00
 -1.3122150e-01
 -1.8901789e+00
 -2.3100927e-01
  8.2156831e-01
 -2.4033163e+00
 -1.1906046e-01
  9.7966188e-01
 -8.9023525e-01
 -1.3101475e-01
 -1.9918293e-01
 -9.3875247e-01
 -2.8979564e-01
 -4.0482387e-01
 -4.8024458e-01
  4.2928919e-01
 -1.3927343e-01
 -6.6862488e-01
  1.5599380e+00
  7.2827429e-01
 -5.3847522e-01
  4.5011935e-01
 -4.2240706e-01
  3.6618459e-01
  1.6183046e+00
  2.9473078e-01
  9.9927592e-01
 -6.4343289e-02
  3.8307622e-01
  1.1175365e+00
  6.5045625e-01
  5.4756224e-01
 -4.1843274e-01
 -1.5849118e+02
  2.3500416e+00
 -1.8780212e+00
  3.1436819e-01
  1.7920175e+00
 -3.7192514e+00
  3.4149342e+00
  2.6110899e+00
 -3.4220543e+00
 -7.9825021e-02
 -3.3045763e-01
 -2.1754251e+00
  9.9490690e-01
  1.3587245e+00
  1.2527307e+00
 -4.6066064e-01
 -2.1702327e-01
  2.2806908e-01
 -1.3933088e+00
  2.9718306e+00
 -3.7091564e-02
 -2.1165566e+00
  1.2430997e+00
 -5.9435219e-01
 -1.3298575e+00
  9.5269847e-01
 -3.9288521e-01
 -1.2358828e+00
 -2.2603996e+00
  2.0750964e+00
  2.2661681e+00
  3.9939046e-01
 -4.1603961e+00
  2.3248672e+00
  8.6598593e-01
  4.5209268e-01
 -1.3552907e+00
 -2.3706217e+00
 -1.1208322e+00
  3.4225199e-01
 -2.4650643e+00
 -4.4195414e-01
  2.5799553e+00
 -3.8575244e-01
 -1.1231744e+00
  2.6696568e-02
  1.3103812e+00
 -2.2503893e-01
 -2.2232234e+00
 -8.9064442e-02
  1.8987057e+00
 -2.0281386e-01
  3.4801391e-01
 -6.5141261e-01
  8.2607067e-01
 -2.9323831e+00
 -2.0495832e+00
 -2.6189651e+00
  3.2301283e+00
 -6.2812388e-01
 -8.7638301e-01
 -1.4124739e+00
  9.7586018e-01
  5.0956273e-01
  3.5197527e+00
  2.0335343e+00
  5.0506520e-01
  1.8666703e-01
  1.0306517e+00
  1.0059750e+00
  4.6745768e-01
 -5.7957840e-01
  5.1427066e-01
  1.6638796e-01
  3.0138671e-02
  1.2168505e+00
 -6.6428250e-01
 -1.6837263e+00
  3.7593651e-01
  1.6254967e-01
 -7.1796513e-01
  1.9748785e-01
  8.7796313e-01
 -2.9458292e+00
  5.0332707e-01
  8.4654891e-01
 -7.8589731e-01
  1.0212404e+00
 -7.6702762e-01
 -1.6135001e-01
  9.1750717e-01
 -3.5012439e-02
 -9.4089508e-01
 -3.7460911e-01
 -2.6735783e+00
  2.5197154e-01
 -6.8710852e-01
  7.1119291e-01
 -3.4886045e+00
  1.1668143e+00
 -2.5903060e+00
  1.0756928e+00
 -8.3828694e-01
 -5.6607300e-01
  1.5698360e-01
  4.6454868e-01
 -7.1139383e-01
  4.0848640e-01
 -3.1632636e+00
 -9.5458090e-01
 -2.2244141e+00
  1.7409232e+00
 -2.8407285e-01
 -3.1219401e+00
 -2.3498487e-02
 -1.6246945e+00
  1.5694253e+00
 -2.3875427e+00
 -1.0677551e-01
 -3.2987175e+00
  3.2001582e-01
 -1.5450130e+00
  5.6674743e-01
 -1.1596204e+00
  6.2807000e-01
 -1.4265658e+00
 -9.5778239e-01
 -1.5428034e+00
 -4.1637416e+00
 -5.1894981e-01
 -2.4096932e+00
 -9.0893483e-01
 -1.4429667e+00
  3.7499481e-01
 -7.6841682e-01
 -5.1248235e-01
 -1.2186433e+00
 -2.0668861e-01
  7.5330183e-02
 -1.6878229e+00
  3.1561625e-01
  1.1566042e+00
 -4.5674015e-02
 -8.1296015e-01
 -2.0778582e+00
  1.1906300e+00
  1.2711493e+00
 -2.9334828e-02
 -8.3161406e-02
 -1.3941821e+00
 -7.6952678e-01
 -1.1144180e+00
  1.0214280e+00
 -3.3719363e+00
  3.5339990e-01
  2.9168432e+00
 -6.2648511e-01
 -2.7480342e+00
 -1.2439761e+00
  1.1119008e+00
  6.4510012e-01
 -5.5018789e-01
  1.4306473e+00
 -8.4053314e-01
 -2.0125041e+00
  1.8991831e-01
 -8.9144528e-02
  2.4901958e+00
 -2.0095916e+00
  1.4823600e+00
 -1.4582653e+00
  2.9701212e-01
  3.0566423e+00
 -2.4385116e+00
 -1.1490541e+00
 -2.6560575e-01
  1.4988135e+00
  7.8958726e-01
 -1.0297830e+00
 -1.9362187e+00
 -2.6873842e-01
  9.1621315e-01
 -9.8506808e-01
  2.6655810e+00
 -2.7639180e-02
  8.5722560e-01
 -2.8168690e-01
 -9.0449923e-01
 -5.5716646e-01
 -7.0597827e-01
  4.6135333e-01
  5.0676614e-01
 -6.0124290e-01
 -2.6413506e-01
  5.8125621e-01
  3.5432911e-01
 -4.9629539e-02
 -6.9204277e-01
 -1.7935394e+00
  6.4281714e-01
 -5.4118294e-01
  3.2493599e-02
  1.0363833e+00
 -5.8122152e-01
 -7.4091917e-01
 -1.0203332e-01
  2.3408437e-01
 -1.6463042e+00
  4.1219246e-01
  6.3438755e-01
 -1.1320052e+00
 -1.0888293e+00
  2.9377499e-01
  6.5405302e-02
 -1.9929963e+00
 -2.8207135e-01
  1.8488520e-01
  1.4966202e+00
 -1.5940233e+00
 -1.1746258e+00
 -3.6504424e-01
 -2.0382731e+00
 -9.1528219e-01
  1.9126027e+00
 -2.9628942e+00
 -4.0438539e-01
 -2.0405886e+00
  1.1286000e+00
  9.4479996e-01
  6.8784487e-01
  2.1303036e+00
 -2.0015512e+00
 -1.5797929e+00
 -1.4639891e+00
 -6.2504888e-01
 -1.3323443e-01
 -1.2070351e+00
  2.2456394e-01
  1.7074026e+00
  7.8975827e-01
  7.8862941e-01
  9.0315551e-01
  1.5358347e+00
 -3.5598201e-01
  1.8891297e-01
 -4.8275709e-02
 -5.3847279e-02
 -1.1326376e+00
 -1.9413877e+00
 -7.8618801e-01
  1.1712892e-01
  4.7491831e-01
  2.0639393e+00
  6.0518354e-01
  4.8711514e-01
  6.4238083e-01
  1.0478297e+00
 -4.5322210e-01
  1.3826433e-01
 -6.5756375e-01
 -1.6001362e+00
 -1.9839001e+00
 -4.5909852e-01
 -1.5213873e+00
  8.2056887e-02
 -6.7801642e-01
  2.3406054e-01
 -5.6315517e-01
 -1.6125571e+00
 -1.2364763e+00
  1.6709107e+00
  8.0852705e-01
 -3.1474093e-01
 -3.8784679e-02
  9.0871647e-02
  1.0347936e+00
 -7.6527959e-01
 -2.6213363e-01
 -1.4881713e+00
  1.9704488e-01
 -7.5161844e-02
 -6.7769647e-01
 -4.9311382e-01
 -4.5556564e-02
 -5.1793891e-01
 -8.7616257e-02
  1.0472502e-01
  4.9033961e-01
  1.1837527e+00
 -9.0001380e-01
 -3.6400008e-01
  1.7995715e+00
  1.5007173e+00
  4.2311737e-01
  4.0307802e-01
 -3.5440829e+00
  5.4091565e-02
 -4.0188578e-01
  6.3572359e-01
  2.7860656e-01
 -1.6130352e-01
 -8.7409280e-03
 -1.5727201e+00
 -1.5414820e+00
  1.8106613e+00
  1.2658060e+00
  7.7802479e-01
 -8.2718158e-01
 -2.4077938e-01
  9.0192515e-01
 -2.7778164e-02
  1.0068291e-01
 -2.0253100e-03
  1.2044220e+00
 -1.4487156e+00
  1.2663270e+00
  8.2797140e-01
 -2.3189864e-01
 -1.2763538e+00
 -1.2226666e+00
  8.9379108e-01
 -3.0951416e-01
  1.2777148e+00
 -4.7912896e-01
 -5.9528458e-01
 -1.3974541e+00
 -2.6628859e-02
 -1.6173184e+00
  5.4516900e-01
  1.8062365e+00
  1.0040962e+00
 -9.2229128e-01
  1.7506841e-01
 -4.9004191e-01
 -1.4391048e-01
 -3.7144989e-01
  2.1239936e-01
 -2.6358125e-01
 -1.3250322e+00
  1.4151134e+00
 -2.1556763e-01
  1.6923681e-01
  3.4712677e+00
  2.7040639e+00
 -5.8152503e-01
  1.0352325e-01
  1.1117872e+00
  7.8357899e-01
  1.9601120e+00
  6.0442197e-01
  1.3464172e+00
 -6.3315475e-01
 -2.3793268e+00
  1.1946156e+00
  1.7356790e+00
 -1.6118417e+00
 -3.4370059e-01
  3.4455353e-01
  1.2472939e+00
  1.8321383e-01
  6.5145576e-01
  4.4715714e-02
  4.4715714e-02
  4.4715714e-02
  4.4715714e-02
  4.4715714e-02
  6.3823819e-01
  6.3823819e-01
  6.3823819e-01
  6.3823819e-01
  6.3823819e-01
  3.9537847e-01
  3.9537847e-01
  3.9537847e-01
  3.9537847e-01
  3.9537847e-01
  2.9949301e-01
  2.9949301e-01
  2.9949301e-01
  2.9949301e-01
  2.9949301e-01
  1.6707666e-01
  1.6707666e-01
  1.6707666e-01
  1.6707666e-01
  1.6707666e-01
  1.0182323e+00
  1.0182323e+00
  1.0182323e+00
  1.0182323e+00
  1.0182323e+00
