nep4   2 O Hf
cutoff 6.0 6.0
n_max  4 4
basis_size 12 12
l_max  4 2 1
ANN    100 0
-0.10642262612546328
0.10228599665804541
0.02984287410074752
-0.047796008968738396
0.06716806066321747
-0.028225315455705464
-0.09394301339887591
-0.08139310596476367
0.026637337661300955
0.06568979210275937
0.14082355440006705
0.054370558365493385
0.04528270143870914
0.013114241069918828
0.14115980455851798
-0.18668596693432413
0.05245934672230756
-0.04731849806393842
0.019803505047735603
-0.08020177855684774
-0.27032399778364385
0.06899113242041327
-0.09189589847487092
0.15090958964464243
-0.15017323975459626
-0.15133026054252044
0.24106553892164026
0.05136323161310899
0.11175490500542598
-0.18012123050505133
-0.05451849961132967
0.07485352854741112
-0.07316120073670494
0.0397721960065176
-0.028502318705885592
-0.09114665090644045
0.04306886447813235
-0.12129750284329413
0.17292035021441507
0.09967852614136798
-0.1687816186009697
0.12352206535129331
-0.04573831665753187
-0.1342925529802311
-0.06642451253009933
-0.26023181093433034
-0.13454877393950782
-0.08562232474172647
0.07951043049840822
-0.19223415722270526
-0.14748270724441917
-0.304506696989058
-0.05059018312140926
0.19824141035748227
0.02399726782722022
-0.09399702587334444
-0.13846177015272762
-0.1096811858433808
0.08381682568231956
-0.04316922237396682
0.04531826852613252
-0.033010959954941174
0.14221685382450072
-0.16281382288264162
0.07355045802435758
-0.04613593666422623
0.04589537755899905
-0.01724064916395423
-0.01725498237719638
-0.12314030877521774
-0.05495168955965978
0.08451323435902515
-0.13204404098939473
-0.09952248162742101
0.15865007371285555
-0.037179745001083585
-0.01932806770843488
-0.08572289461509955
0.0793034968050463
-0.11449317719895884
-0.07552122033570488
-0.142958818034415
0.240908183437832
-0.03287351774507622
-0.18423946054738805
-0.05504000748284705
0.023008348474720223
-0.0015740524174524826
-0.005967512667944531
-0.044905496780652594
0.042440511320338804
0.12263502188645549
0.0569953818265879
-0.05800937969774798
0.10020217391765222
-0.1529815636246531
-0.11413115956136853
0.11995834180627828
0.11614095818927705
-0.014176876940490444
0.1560900922424933
0.018536679093594785
0.08432084211869116
0.05736635293484816
0.18943310142052444
-0.13549046617471217
-0.07778278108201477
-0.10320517924692817
0.08352093280231788
-0.09741928200526284
-0.0294133559103842
0.011475331847550244
0.006869360886300381
-0.17531336730652008
-0.03263158000707008
-0.12903557760663342
-0.22977390421923158
0.2330760295428741
0.027106925948007413
-0.12734369127493977
-0.08531409417430906
-0.32890796583572485
-0.013925544776735615
-0.513194383979349
0.3356483844419894
0.13701297660319944
-0.2328722641648032
0.01237906427433767
0.010833434086309244
-0.13799677454864556
0.10659486638753836
0.014541579651785718
-0.21379957736069718
0.18653417125289445
-0.2714991730046677
0.06497641709566693
0.14944922384238263
-0.09624793915187381
0.0997422553560471
0.12618937244361902
-0.7524903604499589
-0.7868671829246615
0.695201879256531
-0.04650194747539936
-0.3284530188786705
0.10948812329360513
-1.1507476049882321
-0.0874875585248569
0.49813375829831147
0.306357879833354
0.4920991148595776
0.42410445740749547
-0.5109840591276027
0.2934260286363696
-0.6816266039208551
0.4994555367211795
-0.9869307542813637
-0.5606288900309426
0.10953603833646731
-0.24878332371294318
0.02402724682781799
0.19549671046867262
-0.42480590696182846
0.3889488806743747
-0.5031831722270174
0.10477375317281744
0.05579478837056033
0.175366373673776
0.19353719906503075
0.11264767155916947
-0.16042875959893355
0.311037419188283
0.04891509013683336
0.017869177255427263
-0.031144386198593287
0.12816392936745152
-0.1430389056385198
0.10333523770549964
0.1110629897004271
0.06660776510286413
0.0055339304860280245
-0.09405102435113637
-0.06190585752340244
0.10169691608997175
0.05191857936292649
0.13495085555864705
-0.2071570177184388
0.04068566152300791
-0.04163131049236951
-0.0752577125737798
0.11848456216924061
0.02890888828749792
0.08659296547364602
-0.06681508079610236
0.029562235358348996
-0.07818118722255533
0.11317841448641551
0.03033319764949621
-0.06140714664558783
-0.07442682976992213
0.046371744198684506
0.008549106688348893
-0.026234984115494908
0.14403719709693633
-0.03544747571068012
0.11832372315235146
-0.06682521679426334
0.007599667604175829
0.03452214931707909
0.015416228415068229
0.011803404418135712
-0.1394596947437939
-0.17533927313316283
0.07320954736611965
0.044432332112089565
-0.18609771917365145
0.18264160271201066
0.008860002688058404
0.06154567282582634
0.07328480540151179
-0.1679196772056966
-0.22514494869033283
0.32457564413993384
-0.011747416220262631
-0.20939981714674158
0.07660647667423609
-0.38849453231330433
0.07958027228207744
-0.2912828923435791
-0.06634581758625119
0.4176979139063336
0.00011043186246053249
0.16416582284380568
0.032632597748773466
-0.00509634970666272
-0.18700934023928728
-0.1134523479428713
-0.054933249137194246
0.07636654423216672
-0.23099290201293665
0.1258077381250166
0.05041261481146784
-0.02044561347772414
-0.073443143012143
0.05299234085377012
0.03141697492644607
-0.06191595044196136
-0.055342867890614336
-0.07789767574124341
-0.03322891659753141
-0.13928230835558916
-0.22002905575991896
0.06436201084364174
-0.06283518993826549
-0.18504713753538524
-0.19372026412241924
-0.22326937249232862
0.026252055729194288
0.025669089661271023
-0.04016367812907433
-0.009401531717150706
-0.10225177090123332
0.038183144565022614
-0.03647522374544951
-0.0315324568618084
-0.058885102478509116
-0.01832035657120988
-0.19567279479659566
-0.034880828979187754
-0.22534155686606097
-0.06076375444859597
-0.030367161405320673
0.1013286222829727
-0.1601739720723799
0.019296799900380815
-0.13738355306458283
-0.020667515488847064
0.05983450044583165
-0.16885462101612267
-0.2283792480428429
0.006918515378643816
0.23863767102135788
-0.12901171326712255
-0.06791923790660591
-0.05042033458107026
0.03114020339262167
-0.15631759378664392
0.21907139519503355
0.009714373482376807
-0.1828676324559803
-0.024367920833174166
0.03140003081724181
0.3996917551098594
0.10956626258409197
-0.2090381402582467
-0.06834759146996605
-0.014409226616072534
0.01621982123121974
0.21552218996697248
-0.007315436703007617
0.2575344557205536
0.024153880684090644
-0.18235923891312747
0.2681229675479055
0.10861450823235502
0.10593438234786055
0.09883411746709511
-0.03379883335585094
-0.29532140285273284
-0.053707385050741685
-0.13423661435525006
-0.09498567521931343
0.04765808452662899
0.022295155139305814
-0.06833792862441851
-0.038756190000557106
0.1091290904548874
0.15147443759434231
0.27892350084319467
0.05081858175364224
0.18637836919905684
-0.059772060452621116
0.21724346659057914
0.043197002014836505
-0.04525973566436173
-0.33965985114712893
-0.2076768332590344
-0.17380604831774746
0.14641755932845638
0.3787009241079486
0.026498962450312965
0.09588146687789749
0.0950559660075609
-0.24762536462757034
0.1924672354040546
0.06653212461595413
-0.33526766249441703
0.09134024069926845
-0.006232930349936718
-0.04300382667763422
-0.04718068304682583
0.005573420565438056
-0.014606556328878166
-0.008382476256080148
-0.021595382217680342
-0.01443430447574463
-0.05013122234131798
-0.07299773192247218
0.01719079210521056
0.1503649137368245
0.09380367236475524
-0.4147530711366701
-0.017768853217022713
0.019144157780133217
0.16818743198654862
-0.07646784077393971
0.06829377418700083
-0.08160179461339029
0.1238597825487745
-0.16110922268340422
-0.14346338424868613
-0.3118991581639956
-0.11981948631406215
0.02400560535779839
-0.022560367343140736
-0.17912940167359076
0.24308539862399958
-0.20756397914427016
-0.08413159185122741
0.06564758391362778
-0.22647637031859352
-0.22541686828649518
-0.4088181641793174
-0.16338019610088847
-0.13844690353299233
-0.021651863849023376
0.03424236095638557
-0.11171329076034335
-0.04866702583632643
-0.21036592614852762
-0.07979838568815611
-0.03977959799279347
0.07922237615735171
-0.0744521586141846
-0.18052237545314745
-0.029604764583894255
-0.06152026161990122
0.05063659957671679
0.05203797502956131
-0.016362187766494223
-0.07546844943023356
-0.07235934034177739
-0.12524931231632336
0.1805681856984884
-0.055347343875743485
0.030686251455298966
0.14174985876909396
0.0017726011384630357
0.0643825848622215
0.07796144905029127
0.10798982272650584
-0.02242763704330133
0.019398830144831996
-0.04277620530557513
0.014035495563773181
-0.16978772801597405
-0.096272296691188
-0.09860963774434571
0.2517017338055175
-0.08672124934372355
0.036619199090853954
0.02373807275437075
-0.011410480645702784
-0.07345754357526482
-0.04808990672404946
-0.030449231916204862
0.013843461684991572
-0.0845615486404098
-0.012623350409163528
0.09775277201653443
-0.28792907427830805
-0.004678673098883181
-0.2664287988605241
0.021475962749933852
-0.08960572475013402
-0.05808641828769411
-0.21733819896703116
0.3676934296436495
0.2719097451977668
-0.40635397730643663
0.4621464846269836
0.19505480446309117
-0.1349244495051684
-0.09247945714349905
-0.033796004890297805
0.17837970225068914
0.4925687995763017
-0.40210378224674603
0.06378311675526377
0.1256193994297566
0.29687319995872086
0.023805395631093344
0.18746668530009739
-0.18139009375033258
0.09431060389339979
-0.1738190326508705
0.006386314015387133
0.2980328326882462
-0.1948928586048574
0.28435711038426403
0.005777323596549616
0.07875569723682323
-0.02632488060347006
0.12325837813918543
-0.2788262851310087
-0.19611958799468743
-0.11752768429200659
-0.022344674834098518
-0.10969165360332835
-0.10816981132841423
0.057234683095872575
-0.08161907314273244
0.0685528365128413
0.09921422266578762
-0.14494975189422069
0.2189086940944997
-0.0929549903854801
-0.20539964131789765
-0.1386507405835652
0.137866519640886
-0.08412294198178528
-0.003739993138078633
-0.010070697842824886
-0.08644986549908432
-0.048449376698214135
-0.022708987432786855
-0.03213268765906206
-0.03730414009822574
-0.09765814796246286
0.18088832116179207
-0.03482626066336441
-0.1553669767805531
-0.11547667683639012
0.11974741282503183
0.13884452922624305
0.04528967398397091
-0.11793467455361115
-0.024858710777946644
0.01076451369278691
0.11102967057324184
-0.04973006090930998
0.06560462727608234
0.12363647617379446
0.10225210230641184
0.058529544163432284
-0.07403507581610251
0.2560092155210194
0.0014500218939522244
0.08310394901863255
0.19157655246045874
0.17556153420618759
-0.10279415500463243
-0.011814084452419563
-0.10267839153262463
-0.1905163370087092
-0.20749538933865522
-0.21441442951243636
-0.05156843745110365
-0.14230912118196626
-0.05589160629989363
0.11372343501462623
-0.043786701687735886
0.05829167816040622
0.15714360226868848
-0.04904648198513978
-0.13622875044452246
0.07783281913424717
0.008779474553376751
-0.1258185948614358
-0.011564468706611566
0.014605430827769097
0.10813280551983757
-0.12267984580202018
0.0946695991835321
0.06955942383007109
-0.19612840260943828
-0.2696964261318769
0.18581869689627625
-0.04829552773434169
0.013521118065157885
-0.2694964056664482
-0.05882107203190463
-0.2134078924641397
0.24608925934482406
0.13247635336337044
-0.05910058682354229
0.30393391193261743
-0.07523273178206916
-0.08778433490996629
0.13074477716257954
-0.22487690422723774
0.0613472198349569
0.24333062853277476
-0.014882059968526075
-0.027015861600495933
-0.0005847948220474826
0.007498137931932946
0.010380347807495936
-0.009510690772839184
0.006824924464193215
0.13168781007089145
-0.08276943405385197
-0.08426085121171248
-0.04170499302615941
0.20736158599053872
0.16437914249889013
0.051451982500713804
-0.14759063044815562
-0.09443435172390906
0.11075817137111954
0.02570421660806924
0.09635965914924823
0.011632349505434254
-0.09585562834689049
-0.15040537481479616
-0.03302643711660607
-0.07601592174619361
-0.01619387006870116
-0.015137601705074822
0.07227608463928781
0.07818764342025226
0.04132437281964769
-0.01206509047394164
-0.14554855363629457
0.12340808995779771
0.043236718593151945
-0.10841277777482596
-0.11282583058979627
-0.010682974478760415
0.0027028516801594358
0.017993878060606715
-0.0015527385369002342
-0.023105653280835546
0.05459449268998449
0.05375505772906078
-0.03195965249171699
0.09283200482949429
0.04151818641622772
-0.03601964814433864
-0.009205889621195205
-0.07192544275710558
0.07477934952640815
-0.08066418199760611
0.012756940010530883
0.07015258883409739
-0.003052418883520147
-0.1116289197419109
-0.1952507905721035
-0.20064668371828911
-0.046103937346387576
-0.17629892296201624
0.10169702032250423
-0.06937444560405805
-0.07965706890931096
-0.052025366465480116
0.29394428374344217
0.073194437079463
0.20954545494088317
-0.0360636829444697
0.014779509260531778
-0.08692384685981182
-0.20573112582583308
-0.08094400379961603
0.016232771331958485
-0.0034016987058550466
-0.014980995585798818
0.455243930840082
0.05695054837119246
-0.13665920194851705
-0.05842729870478292
-0.04049867953597625
-0.0017319497844708424
-0.036264609046330144
-0.007229314203218536
-0.007349984833808379
0.04839673096870317
0.053953279507155026
-0.08964487979050288
0.07181678304303372
-0.014636073044745962
-0.24009916119398175
0.2480615602833204
-0.11903611618426298
0.05145175399570475
-0.007405249346798412
-0.1438378548261423
-0.11864400916731575
-0.26518843607274895
0.09113323528486492
0.1756446365395209
0.16305933816624021
-0.07887055190431935
0.27168034555899606
-0.10937063652616798
-0.389533874225533
-0.3377655534088601
-0.1437385074329883
-0.2340006871150143
-0.15111710057756117
0.17107719695135803
-0.03512440973969545
-0.01836445573391368
0.1659485015381688
-0.2409951039848695
0.032883390272694574
0.04632862829164433
-0.2315404974184218
-0.25029906202086727
-0.15923135435216498
0.14313103760050558
0.013619972530732022
-0.1014973104363408
-0.038231459218167195
-0.028539068483833675
0.00604973203003723
0.0819394487962924
-0.18285973243186965
-0.06445963706728608
-0.09039303177742329
-0.09019678309644726
-0.05694680243020903
-0.12510060452120994
-0.32188837506130596
-0.14409997209423334
-0.021215814717120477
-0.05605200920445938
0.16027716780966153
-0.022643326041449086
0.0517219642563405
-0.051252589697159165
0.1211757582898968
0.04425310370558509
-0.049906957311509015
0.17117284315725156
0.05734970464201515
-0.022980389487389792
0.20972308447780894
0.1014827678151312
0.08779369021221485
0.08725938030873924
-0.13788296893410218
0.029375590986553766
0.2015464455656489
-0.09600486770827994
-0.023437233424733937
-0.1055117094870619
-0.1896078285611568
-0.17029005853788523
-0.156804744972583
0.18482909507832004
0.04294457194107323
0.24782186098414036
0.10614358244577837
-0.13719044429463295
0.13770989562899966
-0.04250128544082298
-0.03814962459467017
0.06388704948664471
-0.2202894483367608
-0.06926502183940066
0.1458688041262349
-0.09636933941543553
0.1327213266187871
-0.21871596522257675
0.051476786609680206
-0.10264721465215972
-0.2738963897769502
0.29293079557925966
-0.045800726053706504
-0.0557972940801607
0.084529793133792
0.1258329231317223
0.019703942106750433
-0.09622422134419989
0.04730654024139483
0.24530337914158015
-0.14162074456995474
0.14553045035832196
-0.167768338821057
0.16450172422178289
0.10319780721038257
-0.07878891931462184
-0.05801688207241477
0.08817107573022165
0.01690634525406633
-0.05951519599909439
0.13800531690735743
0.24058179138271987
-0.08548292175695
-0.025250770445638476
-0.15944837244913174
0.008988997208188746
-0.11067112315656644
0.08341338759671711
0.10873589099799624
0.07881254081131593
0.14440729240702907
-0.15882339174291227
0.1208005143445226
0.08592381070168774
-0.20527488388003853
0.18263852026986674
0.0766407592502324
0.34060624320055993
-0.32302079516578214
-0.5296921687545897
-0.09922984658128385
-0.16082993369509357
0.1548250151373422
-0.08963579361383964
-0.07653251712642066
0.20781026561526625
0.24549015217545886
-0.0020462784018286336
-0.1632686894463297
-0.04733589475373766
-0.1365828250514489
-0.055229793284779456
0.06124680593644123
-0.10209530552548113
-0.02789630863305535
0.03048367856322211
0.14087461971444196
0.0386928135035614
0.11226870321472159
0.021904236444859754
-0.05048718066406303
0.008980401074497765
0.042912021636283076
-0.03815617370608032
0.12299493225237577
0.1049818523930189
-0.09122235570064297
-0.1605840270702714
-0.05849967715574926
0.01793413911519274
-0.02412261290115567
-0.007677921713823475
0.18145738123632754
0.09369477247837192
0.23384392025677875
0.04146887853912307
-0.10574191553501802
0.025695917774534185
0.23565365575269598
0.060936943183616935
-0.09238671746869925
-0.17540306817561935
0.10667347472337863
-0.06491133053024513
-0.04601710846893632
-0.008066751875312106
-0.10386695162245962
-0.02434894957671763
-0.10227700127283709
-0.15804041624281576
0.17586425105741166
0.29888498056066554
-0.22420680891242023
-0.03956507778840469
0.2061809247250713
-0.022455040974420176
0.22474658479568385
0.043123018689758194
-0.13760486577595182
0.01225444133610376
-0.39490955199133954
-0.0604761426685073
0.04984956407901656
-0.15208155284652314
-0.2000266374667248
-0.1447544607057277
-0.033342057711582676
0.10962131481087031
-0.19357092800368697
0.08403226140153729
-0.023151043632384287
0.03533097613649612
0.29993914590239024
-0.045261546095316636
0.19636170613949958
0.09903626147535712
-0.008779237211031151
0.009440097727224973
-0.004616271569812145
0.17431212302286672
-0.0945661072544389
0.016120404653373634
-0.04737163177863009
0.09380461507028381
0.08758834566526043
0.06632399608188083
-0.19131031437675683
0.12808165614122277
-0.1250413415655931
0.08546450760122264
0.08240266943561991
0.06393200554827494
-0.08146332563994327
0.042304134410119584
0.12857435827254549
-0.18291601034095234
-0.1780219436028492
0.21625173522971733
-0.0675343417484038
0.2603187652113786
0.16503630639920244
-0.17222324206383346
-0.0431682182700672
0.09047987030025491
-0.0926068930974972
-0.14389420540075157
0.015307622946476532
0.13712838492748694
0.10013811212809852
-0.17586884769244127
-0.132233720944
-0.10109668313162841
0.1121867764311188
0.00898662386659305
-0.036184182549126656
-0.09511663759090426
0.014410039799303404
-0.0898243344981183
-0.06367471760719395
0.15855204991593475
-0.14010794065433071
-0.09863131777623867
0.080707122837311
0.020764510467182924
-0.014704536782339517
0.04910232544702653
-0.046610154316820106
-0.08652309109418255
0.02135399262795499
0.012520868271444545
0.005848828462297285
-0.02995475108457397
-0.05918724730498362
-0.11950132577775387
-0.10060316678713062
-0.09528041656014968
0.1571951345774624
-0.11968124685974621
0.13997411937609244
-0.007916733427880908
-0.15911220094956174
0.12587481787377514
0.010644570940159652
-0.03688791797715608
0.006232966200667832
0.026185668279736115
0.06279031116796661
-0.05839214330314495
-0.1032129657414257
-0.16395987470783582
0.08096483261936148
-0.022166429481647716
-0.0710471121905464
-0.05774380239248972
-0.26473049327466175
0.09903624584069218
-0.08906814807624702
-0.20874759816628555
0.04094262605523298
0.10748366216664072
-0.005993483110414406
0.11263830292780916
-0.1421450918844287
-0.03655698221067029
0.029973706774375986
-0.17550991296059176
0.26660122630331895
-0.07215500466353109
0.09158001269759598
-0.196808329740626
0.09564602194679517
0.44395408515867957
-0.005870472610901442
0.3225395879709869
0.12709537721211223
-0.018370358138550025
-0.20821878376564262
0.03448992178983467
0.054132747221726854
0.19680916579611876
0.10742445322124236
0.17375251309872217
-0.1853885277217577
0.35938686519571883
-0.012780138164047383
-0.04941320867350146
-0.0391537997132979
0.01216442437497968
-0.10136281261025852
0.016744715918723216
0.014455052876375135
0.18296244338539486
0.1576876483882054
0.14112835337914123
0.05916145193090389
-0.02169268352372716
0.1341475524203686
-0.03101471773540248
-0.08669440008140482
0.028605321838298343
-0.1572924966531694
0.009358477008003456
0.024015351299284785
-0.028796522238734103
0.03305463213237085
-0.1524799183471976
-0.0635152833158596
0.024583668390153454
-0.0664486554278279
-0.001818287529687454
-0.05380286871200035
0.1274184102547963
-0.11158316095599832
-0.015408201519573157
0.1640374080948547
0.022848175350868243
-0.0974929028110333
0.2862584951686358
0.061617598541331614
-0.011789365959271696
-0.047701188719615754
0.012327731103222805
0.10413493295459232
0.036272626496267314
0.05474868488221321
-0.12457779151087714
0.12040991541752878
-0.3422996598419829
-0.20708006869866855
-0.23228965981985866
0.08192222239643314
0.18007871075897505
0.10669825338386255
0.5167073966535556
-0.12759022625474176
-0.15498268709303997
0.3456481653806137
0.055843391235312956
0.06612422222605881
0.026724780156348153
-0.05623755044252181
-0.03575340982440548
0.004509678452053925
-0.2249536501855156
-0.40234154019900203
0.06001370101792948
0.3422831834832578
-0.3647246538009264
0.08272673459579091
0.19220984135412558
-0.18787419821698204
0.23658863673483496
-0.03884487720040064
0.10223213176036595
-0.012852585515317807
0.14782323300315936
0.06872829661252272
0.14420040728379388
-0.015610381903069456
-0.18924768042485213
-0.02690206119161128
-0.04348037962968939
0.1362317133853268
-0.023960953366672127
0.15951032593477502
-0.021276044083319005
0.026687119227715973
0.1395078141282782
0.06909749829990369
-0.2127215776868362
0.17322256883292947
0.140005429088869
0.006033041894159858
0.054332011424167256
-0.32391763106170957
0.027733237479448537
0.03464180926385296
-0.06992448076938203
0.09738988370711858
-0.014641438753807424
0.25281422743808024
0.049489816087143985
-0.0729035183138384
0.013757154846904126
0.11283411310829224
-0.03713244576502197
-0.281208744507817
-0.027738184743143317
0.15541101042529926
0.006813185511927119
0.012791683190928329
0.05368394702056557
0.11578735940278054
0.008689480759922014
-0.03443392867305267
0.056234347427024704
-0.08506060743118558
-0.0021093943588110903
0.005296451808972719
0.06784395072180245
-0.06733653289191024
0.06118951377026593
-0.03851693921390193
0.03803653235778524
-0.08339534346472556
0.02329244101896824
0.06332934692487449
-0.039077970143247966
0.04120293707007408
0.035558619792473115
-0.0018143168855978822
0.1418663957982222
0.0987569176319437
0.07900213510822733
-0.2520252723349906
0.053581632986059016
0.17079412283317585
0.07186840553947803
-0.004538641214888442
0.09216945167175256
0.05591849545711593
0.14076700008217335
-0.05989586285846927
0.04802073574588493
0.02177056057725969
0.07672859678132328
-0.027981286855416888
-0.011187936782675658
-0.2335878184962704
0.01055474695761368
0.0063616482612525215
0.14252715808608743
0.06726025633481286
-0.05537410914530067
-0.1075561802452259
0.04266370680899589
-0.060092008795534016
-0.005926944715337424
0.15981030793605178
0.09981652913255817
0.16358360572206743
-0.11310575990835765
0.026057803969445677
-0.1894640283014764
0.18171448201279933
-0.019505024173178433
-0.023787941890319075
-0.18750964000708384
-0.10721638020830672
-0.033062721650947764
0.1277898435420617
-0.0686536897179902
-0.18080055083354432
0.06640115047958087
0.15826511389678616
0.17962817336165254
-0.04982820840040415
0.31510512225093057
0.04149924569003341
-0.03077977992235193
-0.024694485039351337
0.15885932056702587
-0.05092628605873604
-0.07502610669076257
-0.2032698735383491
0.18136248948392475
0.2692099321458108
0.15155800028198665
-0.0004448508709008394
-0.002879804324426252
-0.06724541147279871
0.3954662594547795
-0.19011612111459045
-0.05961992174986822
-0.12274186336600344
-0.35003418965210387
0.0398931842502546
0.05353991563577479
-0.01843630197917107
-0.27858962623676586
-0.23519720057038834
0.05503990537637842
-0.04337247801271914
-0.21340853614045865
-0.0983207986065839
-0.06329676378797877
0.2213586616105295
-0.043507518959903776
0.021319117123790678
0.1628391488043324
0.14397352003502223
0.08688887695463274
-0.03847756516623882
0.08893680746449037
0.07068653389599219
0.02018512441550103
0.20534958457972907
0.028843554927225994
0.28121812544706093
-0.6494362345583103
-1.7967360578686002
-0.12623189883602387
0.45886094078662154
0.36502474345897196
-0.5987245001501587
-0.24930993699452747
-0.7841847106899974
0.763896443614273
0.38834863918370527
-0.11128494450743372
-0.20891364435413287
-0.18070667106353888
0.14030650697209698
0.04725793031340963
-0.02489290543869202
0.24218760741126227
-0.6188060002380672
-0.4665448556364006
-0.10423332467085714
-0.19536243462859557
0.13161995412245994
-0.8067915647766473
0.06447619669829743
-0.6678792064444776
-0.04526227355066022
-0.35584888355003236
-0.2154033790611321
0.06019534446389114
-0.36474355036150596
-0.37649342904005983
-0.015077457500827006
-0.2057950643107159
-0.04548614067046347
-0.1464049440899332
-0.4863826889145945
0.31515552409975656
0.2828171516000347
-0.03501498099941467
-0.5276677251692915
0.31020631751479943
-0.027822750583533784
-0.09793256379549714
-0.19570053852782868
0.22730181687135675
0.04897448681635515
0.3278383819564248
0.04814368353935786
0.11959662164520482
-0.33353307688091743
0.7267818856868058
-0.16605686254750274
-0.3503623289234545
0.08599483725682186
-0.007955472994528732
0.05126121385235298
0.054532187481479186
0.08950193217281766
0.2640608288339029
0.11119908733962924
0.0918422351973952
0.1806950803103309
0.03883626422730192
-0.47834287734161846
-0.1677018887482614
0.037813166225800346
-0.028068651198983587
0.03470923091294255
0.0062762331426028635
0.069414209961677
-0.049140068909839324
0.1479895321508328
0.11888502722841082
-0.02924858022755592
-0.05909201588303211
0.010222012082642583
0.0689386089234276
0.10291391354408426
-0.212430978917137
-0.1865528736025352
-0.15942658691539283
-0.18682830103326523
0.14246332467979278
0.05443567598129589
-0.013540316933853633
-0.04986696227589716
-0.08587621540160531
0.22503437754182629
0.04015827623665302
0.002468374557855934
0.014711545309868571
-0.006911158294532994
-0.18792457924726505
-0.09621724841319666
-0.0911061439337109
0.15071710191816623
-0.032638342877765736
0.19533189389671382
-0.1775617802453075
0.020884365116028203
0.03366765595424959
-0.14370784772640954
0.06737659395658913
-0.06709951482840286
-0.08307230511570962
0.09366155036488871
0.09861230712023
-0.09528625321925266
0.12239254008200644
-0.05081394430459204
-0.0068145787413013414
-0.040983651916480845
0.0939266751405022
-0.20970357242772986
-0.09331152941875065
-0.07311790450217233
-0.12313912393701573
0.04979546928214024
0.27422932820689655
-0.11891613963360718
0.11132949488448987
-0.08633637098877153
-0.11374673722020791
-0.007920821496934564
0.08302465660100121
0.18323987923884116
0.14494088087472037
-0.12938554430816512
0.22929670918912598
-0.015668790608412756
-0.19064565133616934
0.11440565520568029
0.09823802003879305
0.0025239867683029753
-0.13743286028627572
-0.04548746866344627
-0.03723294816731681
0.17493921094900627
0.004404884888347656
0.04930549305788551
-0.04730101864872429
-0.1574032732673249
0.05843248943168033
0.011635133788441644
-0.13426863489604093
0.2486616642417602
-0.12670412633667733
0.07248006905443516
-0.021898888635059836
0.08719002397954005
-0.12795728445813484
-0.3178077144561463
-0.07087631467237739
-0.02012568316420251
-0.16532154323436918
0.1040310370617094
0.12267231097631603
0.008276451328952808
0.15894372997122191
-0.12604075537831044
0.1376537842542644
0.2620578498129599
0.0453764394844938
0.10397231046883322
0.11262462283624632
0.1630409702570442
-0.004936127150251151
0.13901975473464673
0.010042485793165317
-0.09427429875800987
0.10009954911073138
-0.05978438454841511
-0.11762665148177617
0.007191931314231196
-0.0734052091223851
0.11362054979167113
-0.02202648713591593
0.022661406816687834
0.15553016268887745
0.09331292469441195
0.09065510253364925
0.23694978106595677
-0.10246252523960082
-0.03750776335376504
-0.04910483634523324
0.06683508190963044
0.23334414978584025
-0.23320892546679592
-0.007721364875988408
0.04479900652916517
0.011742572500779876
0.080233598863114
-0.02754554541179194
0.18611755649861647
-0.13822423508951365
-0.04429332608336306
0.1409436150339566
-0.21702625346959462
0.19931854406158447
-0.07919920022792135
-0.06604209331569416
0.13106897153210081
0.2411767095796957
-0.035358695566508364
-0.16255799457442383
-0.05020976157657625
0.02919004350825976
0.06063118721665979
0.023875543752362206
0.0384211522135173
0.15094891971954957
-0.34702222841099195
0.07692554334597684
-0.3093749145050873
-0.2689996480334183
0.03416426846105846
-0.21789747485306016
-0.27232916665550455
0.1550131003151194
0.00312633179258627
0.0626565039331944
0.1731359800702573
-0.32878334878127263
0.04190486370216528
-0.18248029093465618
0.3103894518461394
-0.2001956256969376
-0.3023879766384559
-0.013652190593259115
0.03400811955372351
-0.015247273799425178
0.365369400841717
-0.11069395868558607
-0.12528035073019606
-0.08159221416289285
-0.18162062369804546
0.16840114453252378
-0.015174288070306942
0.43893991439558727
-0.05954331093690525
-0.0490846282354594
-0.20806120313992865
-0.09049979615557983
0.0424228968235772
0.06585661627058924
0.23331009479202827
-0.32623166963735784
-0.08210394401857903
-0.18274406210281485
-0.237267845692889
-0.12801482703630415
-0.11784435862552492
-0.08807025448354894
-0.009199925647561495
-0.05164748097198911
-0.03123854079046446
-0.03503835307170368
-0.18197788097934856
-0.048727702592836174
-0.10954441928969802
0.03655136806889969
-0.13489539564554218
-0.13017944192698064
-0.004542754619823624
0.17274095185072746
0.0721872188681455
-0.023321063821141595
0.036552063876244864
-0.07251661786577672
-0.017490239656710056
-0.1522776161689301
0.33670056708860807
0.07727541747328188
0.18215534233623856
-0.11827980171321734
-0.11204750465325594
0.033196772165675174
0.03042379347594879
0.07432692897323055
-0.09114032295129516
0.01631626436642701
-0.06237134850504515
0.16832814618723008
-0.14573498849193256
-0.11780185038434096
-0.11017164406463223
-0.03053850401639618
0.10257465276381611
-0.028286480623099908
0.008462929167916501
-0.1022774250505666
-0.1173640769541499
0.025640110346598986
0.07564704684400489
0.0016060024998187936
0.0387531612558532
0.07249035673639422
-0.0078362104389183
0.0611986564837216
-0.08196413193501738
0.007474487979888419
0.03493951388892406
-0.12289691798614047
0.014386403976468608
-0.00612507295597445
-0.02819753773474168
0.09707316155791537
0.08154138711021247
-0.07189842671631318
-0.053654428685370424
0.0876580346383743
0.056636227395269176
0.04698664574884128
0.010371145097966168
-0.011408637076595953
0.16156857456882526
-0.1252036040484683
-0.1544829366293336
0.12393890107068273
0.040531011785326226
0.11597111026318849
0.2746430215633392
0.26846911128057604
0.0005042968343622889
0.1192727350080141
-0.10691315776617885
-0.07177491529896021
0.04079920820136127
-0.054774746109509574
0.025351347212358436
-0.09097980084163826
-0.3792960213177882
-0.11261366363141401
-0.49062448045142537
-0.006607265888308288
0.11210352391471279
-0.06343101167206219
0.03405152961650766
0.17876195683429974
-0.012546152904948957
0.03996703903462784
-0.28178743946624635
0.21576116029719947
-0.033740080435821954
-0.19649593278791114
0.15029364893824282
-0.026262493093229106
0.10030906081342222
-0.07094906174274282
0.008477221680227489
-0.1613835711106211
1.48418234001031
0.5000025185394965
-0.6533812073477123
-0.7980815745657733
0.19481515906694666
0.32441141175317695
-0.011747329916227903
-0.3895808230968713
-0.08687532465930034
-0.2451424480383177
0.027051229600634174
0.46072644330938484
-0.031362924216621846
-0.0441884019918066
0.2645785965760266
-0.416950136245245
-0.10800374074067516
0.10922111282604481
-0.03823728588826238
0.6252818326987695
0.3025673072356875
0.3939778512047332
-0.1105874114021297
0.1866285209508733
0.31004810421076046
0.16734748915085318
-0.18319688374503243
-0.39427775502063733
-0.015386262711479715
0.16917865920104314
0.008660108791687613
-0.051507899252549866
-0.09499560167401147
0.024461804387387567
0.12258316187331886
0.0747159286623951
-0.2747611085955147
-0.07182742762627065
0.013867095198650986
0.19835173440069892
0.02591493503969291
-0.12119608687623676
-0.10969703318443302
-0.15173696920629523
0.15151227711670218
-0.3127645249297588
0.06562909120555814
0.13954750678289568
0.11027917017473018
0.1474828395240906
-0.13334328748919613
-0.1086980242120906
-0.13338752960219027
0.04077860654089221
-0.0960011673432768
0.031612296796994094
0.2400609243588102
0.10251628271244122
0.04081604836746846
-0.1655518225772322
0.308341234804748
0.14986020231970681
0.0954480821833994
0.14092463380940612
-0.05379679253437419
0.11497436358881952
0.03659303538260935
0.2046686455919978
0.033142599955608684
-0.04427309630909366
0.23055645642333267
0.31973044671365364
0.09824514897590347
-0.01573798969003496
-0.11922704346705026
0.058883250196556096
0.1963045660640382
-0.06744923456061465
0.017597924263160848
0.0054191312833776015
0.09702796026312838
-0.06991439368485595
-0.027046948182811135
0.15696167002444814
0.06010206180339951
-0.16140381965780642
-0.037904978325690286
-0.2754031050968276
0.07815003654329222
0.008758528083492166
-0.18263811310465128
-0.044003346001212314
-0.01179312935684489
-0.0687331860097063
-0.13674874664411318
0.18603535919614217
-0.16187456789727162
-0.09476970859622903
-0.01766176234985361
0.07633469032171236
0.024353465617754855
0.01705693417906271
-0.02610446363334608
-0.03636612001692092
0.16263006242483652
0.10157810323074208
-0.03715355048415563
0.22410482480325347
0.020794308222736837
0.10396779194649153
0.10585862817371727
-0.14679873236701269
-0.07231703354103196
-0.09537204491006077
0.05002468015685979
0.0549165770202073
0.1122953058947251
-0.21573256396978535
0.008784892950384584
-0.06409216430575983
-0.16878266138386938
-0.10679586383059453
0.11644538703295754
0.10378377607588238
-0.08981054144557588
0.0023826445386532086
-0.07541850590149468
0.14360835214378748
0.007514272089180553
-0.05278994939313376
0.23772219408337777
-0.3114454861100299
-0.11112313692665438
-0.017547918438572167
-0.005737919984689765
-0.06456879561345477
-0.12359050928461549
-0.010236952401291284
0.08484776498792272
-0.17219492039504186
0.08906270111222755
0.12746040236838818
0.05683381082627079
0.01605654681453321
-0.021367357399266373
0.0625051098709756
0.05274261375876689
0.07379562792502424
0.11930847121540739
0.014890403991061339
0.06570968286092899
-0.02907227822594349
0.1289515780501296
-0.11115723465048043
0.15158552475061682
0.053430724836393315
-0.09879602282814412
-0.16042561884751363
-0.010692762004603777
-0.13820636653024335
-0.1721376914941964
0.0517461910206501
-0.019514462494408004
0.11519986285949271
0.038667623730130385
0.03524860937226122
-0.09332397690638378
-0.17130312256715252
-0.006329377494565576
-0.0234678754072771
0.05674368453086578
0.16762030936747013
0.06782564567955475
0.008209781411899422
0.07507469387103037
0.00324538204401877
-0.07516695632606436
0.1205319320343998
-0.0026894375314805816
-0.2191668471982101
-0.07270840678005068
0.023603639494686655
-0.15147565729912268
0.0056150630120027105
-0.15842215106413754
-0.07449348125620517
-0.03345198061045293
-0.06227330970183618
0.06070964600688772
0.08869806937734567
-0.06573100872784005
0.07627018855896857
-0.06372551264024796
-0.03599738226402488
-0.0004664494925100515
-0.14081778641040138
-0.026778483379780275
0.0715329094237984
0.08623478594364956
0.0347062008275599
-0.05114689924418195
0.1752818483850587
-0.21211144078211877
-0.12483666251789194
-0.06662166569104143
0.08070000424004757
-0.014055234149160203
-0.01256371328164414
0.03087624674677965
0.30088117520034435
0.0742821041366764
0.20279733442383016
0.1554500382245791
0.23157989310235805
0.059338399014014546
0.3664040734757581
-0.2664245573295176
-0.10499754783569733
0.26179090800606597
-0.41693179778155137
0.05497575441554518
0.4493189713987636
0.3940546477032143
0.12046173863644605
-0.0631289737180131
-0.05189065422886313
0.12333098493976724
0.4678750126004754
-0.3301422975245834
-0.28266104206281384
0.02088163789429057
-0.15673384334314097
0.4000842848875996
-0.1424457905968283
-0.042709570033740166
-0.1132346780659726
-0.020647621806683933
0.08884492990469973
-0.0460424737384286
-0.020915152659664326
-0.20234526352775792
-0.004482474685045262
0.043359054812147094
-0.036209171992017494
0.09735953275339107
0.7800896340022935
-0.030310429526318225
0.2145943875767016
0.1678519063599088
0.1490810198045087
0.4332586935684061
0.21046515065587978
-0.4029124128190582
-0.1687943411697955
-0.00033509846143264365
0.1296735756216222
0.10239150588660054
0.010890459340552964
0.3006468593784041
0.18277633283144296
0.10943978074542016
0.2341111156719495
-0.37707687136861706
-0.12548711474537394
-0.023992458720987733
-0.0387315261846154
0.16552439049636802
-0.08053832117367399
0.14088754618259403
0.11413435554571931
-0.18049181376077642
-0.04302268256076571
-0.2587049587547846
-0.12590552608997377
0.19102676197067853
0.16505832294841302
0.10809343608848664
0.15406658065877712
0.10550811354138172
-0.05376152085794774
0.06454020603192655
0.010948658646998954
-0.11082961766851857
-0.0028100141043097483
0.1203109056363818
-0.02580072381845791
-0.08421872357835444
0.19522977912761166
-0.0901697167416514
0.2274481698305652
0.14879549988013901
0.09558990118714862
0.13625933207628707
0.11653962288475947
-0.18746307951851038
0.08388044943609614
0.07767635766945685
0.0860805699387559
0.22814120143142846
-0.07731093040623002
-0.12359933857976765
-0.2045839295415792
0.04444773757532621
0.14646151171858915
0.1915840644899147
0.04836115197712777
-0.22167059666436115
-0.06141471327202488
-0.10493441179600681
-0.177752196192337
-0.01505301126016434
-0.08506883755652762
-0.0624018800962753
0.03551065036241024
-0.04462577529991247
-0.012764675562744025
-0.0751316183349554
-0.08837337517599245
-0.13399647687922556
-0.07799901048023633
-0.19448247173294206
0.23077678854311698
0.0752542450517822
-0.06569923752647434
0.12651410929920023
0.029742529262186367
-0.06119025780721963
-0.08410575284304408
-0.05141571401663907
-0.012400987294707608
0.1263730063195693
0.022348681885275647
-0.06593000590672608
0.04112538292263528
0.10665029248921859
0.009882159097708018
-0.12759589887040126
-0.19203587525250954
-0.1138985509070139
0.04033528920514126
-0.15566022276639302
0.08859427903362571
0.16695097080793447
-0.07922191713674194
0.14957227360302208
-0.0002693350974824172
-0.06732640364270685
-0.00983459140435743
0.04227772407751392
-0.90051459321681
-2.0130037071650935
-0.917902448353959
0.6466478610966178
0.17521044138363995
0.10387460127875608
0.3029201648488843
0.10495228032917445
0.2981831620587471
-0.20393156877726534
-0.4098306308811789
-0.10042028289835303
-0.5783543986433158
0.4505827190011345
-0.038738228166176523
-0.24815178742197264
-0.4487091913490318
-0.13249969677295478
0.7006486269173366
-0.10965007616643231
0.3443400194597157
-0.5263828191529546
-0.32660319270449595
-0.2561667592825835
-0.5541848416554929
0.06799979680330186
-0.3648358823301042
0.5145164273741665
-0.38469792059245633
0.5384018965243742
-0.01995795949397189
-0.14044394465210802
-0.08708775149594711
0.09359308298762038
-0.00546737114905449
-0.34541369383862364
-0.1553798650800562
-0.11502376125001716
0.2125136470117367
-0.31455289984635093
0.4355012975291966
-0.5906349977123035
0.1293770398367771
-0.13446813691281898
-0.3505775860886723
-0.177656329966841
0.10021988401440853
-0.3678255243322022
-0.12402062041350748
-0.1472173663019023
0.1123325882482715
0.45587555405136226
0.1952179495355615
-0.6404536015713255
0.2514886532688686
0.6920555278084123
-0.2734848042505997
-0.017926412365468766
-0.256859264952793
0.05728062599248935
0.1623232395909795
-0.035543522836614494
-0.31020526957162065
0.17923387071327113
-0.1909924003135675
0.24194069825315373
0.18849961696605078
0.14256835354167147
0.005721611708480308
0.07464173499156877
0.012653752676080566
0.181275045100869
0.062997873485219
0.03380446206361858
0.06745204210917749
0.18575431898483852
-0.01053584099707257
0.07676653874363441
-0.033751288626462476
-0.04485585701905986
-9.697148673693825e-05
-0.33395496354342613
-0.13402811499582062
-0.15240908955917848
-0.265051747751177
-0.20804959144676904
-0.0958955174133517
0.16802164483483148
-0.05898548995172358
-0.20029640501212054
0.05011616092360739
0.017969176393105572
-0.18420409666370957
-0.06569817287596309
0.1595435310204339
-0.0008563565693524304
-0.030510140267758765
-0.014265648646380292
0.07477991731437712
-0.11460560521173725
0.02916026057546816
0.07082505814146162
-0.010185108552780799
-0.254606511760094
-0.04195168683023563
-0.04384136847268394
-0.007884994195236826
0.08677817728455223
0.027804234402755194
-0.07071506195629414
-0.05712825792010874
0.11770574803361987
-0.006964480703996984
-0.14892869593176533
-0.04607332607945881
-0.06338102473342995
-0.3399871314562038
0.17275724459632114
-0.23976817768381137
-0.017440514169757785
-0.021716696897753573
-0.13751558907469452
0.007050886043384186
-0.01630008209130629
-0.002397509460117497
-0.12878727373713453
0.14406417197267082
0.14935861197940542
-0.07348146366081812
-0.026793999090816995
-0.07345279634619077
-0.016917944419388056
0.13453659801353987
0.030411503967126642
-0.1269260642562619
-0.1802414281294841
0.02999229468689989
-0.08332030180555884
0.014431043984500843
0.042090278499672375
-0.1770939904632657
0.11215019088180045
-0.2184716422565127
0.3722516242493778
-0.02525608755325664
0.019400872891032702
-0.1667715225319615
-0.27332486368446585
0.0966884962638626
-0.18704021336854174
-0.07409086299434249
0.07894592987262831
-0.15400871629693985
0.0949003669081796
0.07401021882436103
-0.24867249676139258
-0.07587845534717114
-0.1764412269107239
-0.3266504609326578
-0.19314970088523453
0.1656216069517039
0.03222825719815053
0.02964678707658237
0.2859070439856457
-0.04221451130371541
-0.16834419881271515
0.3023885596101327
0.01632096598749516
-0.12145181975382384
-0.12829060977790815
0.08746504341669385
-0.0010893309760270746
-0.06712415645633399
-0.04250242513769332
0.1197301171531355
0.12407189950062365
0.02922591913503137
-0.05948737999405364
-0.02597424652809799
0.016782213350257827
0.11440507478524961
-0.04142826974799082
0.13513601817395673
-0.18774520836787864
0.06368357416776137
-0.0372328683409526
-0.23186039154972113
0.24033446640844436
-0.05721105898066352
0.057205838683824325
-0.019189055083820915
0.13075779308609625
0.04342349364412185
0.02032028443655754
-0.3722306628921622
0.05487441387395239
0.0006699189794325258
0.08329887356730997
0.05268180255282624
0.001118280418348128
-0.0857248901074927
-0.08659733191351068
0.1568592028024103
0.10368015804984984
0.06861958900861055
0.166299820638273
-0.05235692236381648
0.034461348750748515
0.047451722354934195
0.17112114098495562
0.12204086082145021
-0.5167976266822409
-0.08539066098228236
0.4238331185715653
-0.09417565701611354
-0.52817035769912
0.09719574090984107
-0.22458008304717716
-0.07200491050922023
0.3777251261075376
-0.35859227372659713
0.19878231755334827
-0.21575973932736098
-0.4144182851349023
0.3126438789118135
-0.3889351069434551
-0.15728932599336296
0.0886782708366202
0.6197064293227263
-0.6796561915259701
0.3003842603891884
-0.05859104542992022
0.3005962772916209
-0.37282421689051626
-0.29410793851614814
-0.1255425671610313
0.05333912716600116
0.09908897260621594
0.2035799147253615
-0.10721711790905507
-0.2506360992650438
-0.14208455320705468
0.01934295925674816
0.06431015013016267
-0.0724936648041542
0.06060976885211386
-0.04255503558897138
0.05429178297291626
-0.010246172323762718
-0.04814145249318715
0.012193652637980125
0.0063639657134230854
0.1419377007468204
-0.06349595508399603
-0.03944706812820953
0.0015560721778711043
-0.03598591355946425
0.060902450376440195
0.006350915137842746
0.0221830214227429
0.13352868995192435
0.15930643087778348
0.012104167223142316
-0.11307597724583873
-0.03580619890173507
0.157499878287852
0.11206781593434469
-0.03809697755045978
-0.07231504756854087
-0.008437640955363231
-0.0035885440936025558
-0.04807351533504429
0.05469710253249943
-0.04916077092246838
0.018731626571096994
0.021381941265974497
-0.15431167402183107
0.08288135883150097
-0.07330012279876898
-0.11710758947540285
0.09454452260127993
-0.03742463283265428
-0.0018045278127522485
0.12924134534981718
-0.05324226210908392
-0.23370034344547375
0.09080762010395657
0.10754585136911264
0.027742906038165475
-0.036541450456158336
-0.07721549594505028
-0.14296605332806492
0.09596201127227981
-0.07796763049690009
0.0605667058883248
-0.025263001886793195
0.04510464921625215
-0.10755113711842111
-0.1413238829489401
0.05819103204419077
-0.09111790845345608
-0.22585136440240783
-0.1954002766953044
-0.09056708219432927
0.03212828493999498
-0.007682088558101936
0.03633747196380226
0.19931758443422315
-0.2885418256610635
0.07663679214295886
0.031177874834697382
-0.1493707683507086
0.024905199853599406
-0.016524890634923028
0.052626838828776966
0.21092111217289733
-0.02364905306658637
0.0010360906606631107
-0.037703104050196695
0.11530790901414556
-0.24998979627761234
0.12578963048420078
-0.078428440180294
-0.07569480533696396
0.050297696657429974
-0.10523655812315524
-0.10347638990148134
-0.008594834518450507
-0.08984083628741284
-0.2505191809291419
0.03660136945901121
0.1603629422312862
0.0066986460130120575
0.05928276468555927
-0.13173248626535058
-0.2871489758257417
-0.2398183649652596
-0.024331299111713396
0.017209096235400314
0.10097917559558464
0.12640899107113115
0.12766881094321555
-0.16745790923337292
-0.08283583131975743
0.048834253216285484
-0.12999557687697286
-0.12884888862676486
-0.09004932937244726
-0.1266854539218139
-0.07585706727541795
0.4129169748133939
-0.34187256573118274
0.2374278893175851
0.2647787245692026
-0.2633868607534085
0.2539370615655264
-0.10489726040501723
0.2865460443961015
-0.31644211443200015
-0.3556772936299623
0.3214049100580092
0.16489329361174687
-0.055915303259076454
0.24731298890378867
0.3768189706637067
0.28175781628786223
0.42547637821283973
-0.1947963194005402
0.372481982816072
-0.27981132596189895
0.24632223860760116
-0.06875864146514962
-0.06345992895352384
0.22060381376179383
-0.011880415045246001
-0.27360839297191286
0.2750621186750376
0.017186372096341548
0.12118482504114106
-0.2897389160542178
0.07745970058093121
0.05688460246865315
0.02408339057319517
0.04689648957758667
-0.11406652415175578
-0.15946027285566342
-0.20224023979876246
0.005997922930725227
-0.26534126799843505
-0.07231936360323049
0.2277274583144024
-0.04341521096290002
-0.11729673505806765
0.06657674172253024
0.07605957452877994
0.20242062974819328
-0.20678977469083334
0.1925111822622421
0.20698588499915946
0.011791473099573901
0.12693108726587765
0.020004166938210905
-0.1477176079771903
-0.060778247535305016
0.04455141093592651
0.12977345274270236
0.1568989002584737
-0.2818897807405571
0.13266424223323608
0.0055477683428127806
0.12479955062710872
0.08234297372902527
-0.041447152971758154
0.20527413761744295
0.06271835038276832
0.028657972610557955
-0.05607240725836592
-0.08386812488184026
0.201448119563606
0.11159813649204434
0.1663465822402917
-0.044250844084903776
-0.04869635663594704
-0.1468529369965253
-0.00932438707680414
0.09601483402277174
0.12690785293941423
0.14774194230379378
-0.0798406428512453
0.0416314717301809
0.10752262569693115
-0.10761895508920918
0.19131124596325785
0.03297373155901676
0.13007268150296358
-0.029870339410240386
0.029548063209997994
0.006757089220174653
-0.027751404806938836
-0.09042527915936652
-0.18377526042462367
-0.12254735062272169
0.06936345893901139
0.09250588422454113
-0.02339107556059279
0.10129205150223973
0.11767286120861682
0.23380074350625418
0.17488044447299989
0.0062279358373629155
0.16644919033668842
0.05196376234323662
0.02936355513812196
-0.03258854263950063
0.13394206427102415
-0.04224758206456975
0.09748140887766145
0.09261340419591552
0.1243415922693475
0.08837710366523834
0.15737506095950896
0.16996585447151827
-0.044819404403909455
-0.06580682177115227
0.04259369250480081
-0.022043942679102056
-0.24275132645187036
0.20836909717332489
0.13957292494632667
0.27883761853575184
0.06986944460167308
0.012646978841837865
0.27954164170815965
-0.21710907351122888
-0.37892563846280597
-0.1795067740579284
-0.07603184683485228
0.02519551666569637
-0.20335809274586258
0.05204882569581406
-0.005062589087414638
0.02245422002326384
0.011573930421341158
0.21532190696205822
0.19596236024791996
0.24594590725224255
0.03503845001249027
0.031820042067936684
-0.10722963335086504
0.014195454732157576
-0.16980879589227038
0.0501801211020897
0.0800114678519152
0.2199430016731477
-0.003155931725504226
-0.07863240789274187
-0.22947269702657208
-0.27762080892769625
-0.13102813496082433
-0.19255313723730158
-0.26432222918733933
0.06447947012454691
-0.0869490530954463
0.19931341910252323
-0.0512141865463848
0.08232863890363731
0.18153354505241268
-0.03978655586226023
0.030879713402285697
0.10741166359317106
0.1303389497225062
-0.05673046194161246
-0.17101585088819427
-0.05075937568884693
0.1265638284530178
-0.033531163668926264
-0.02053839988865898
-0.2935741216625863
0.16745562813630677
0.1130865161322975
0.06703198024816161
0.19762275033050827
0.07526704635996619
-0.03587011053823623
-0.19869526246782623
0.05812870581897252
-0.10192868902522388
0.0784689287787361
-0.057971148108320686
-0.023365107100091157
-0.0599247921145625
0.021839696757410272
0.1818080456332797
0.13489875447784994
-0.2788909879838101
0.1358050492283211
0.1805141050102176
-0.05212326480403759
0.07113202190003255
0.02211205182882715
0.04106203931204092
0.046803336935618556
-0.008964594079765357
0.08652836604090644
-0.01614664260713996
-0.08875999122732559
-0.04819400922444228
-0.2164046106541124
-0.11540791631506808
-0.02416433677347628
0.001090631363213826
0.22103232211533796
0.12628341808340388
-0.015368677605588682
0.12233694375694736
0.10524267879303253
0.0005665341141019934
0.01844069673432311
0.05604453026098792
-0.010403542064971764
-0.19509041194040488
-0.014230278538495213
-0.19562956251015853
0.0522739233507539
0.0692042027154903
-0.09445668185295465
-0.3004807244518776
-0.07186077748861121
0.1476770468395496
-0.026469740605410505
-0.1422845075412745
-0.07807488157730542
0.050437491433313796
-0.0168505131866643
-0.011303560059364644
0.013502206198790698
0.11801127623620614
-0.041514598875394104
-0.32590269375689235
0.2925623493674054
0.28901856409009513
0.1139925377616481
0.31871241689176527
-0.13485193113637098
0.08186708989484472
-0.1673954886035784
-0.01681755990943879
0.019481104543077984
-0.04932639976941561
0.06545255013151714
-0.05525486054349071
0.12371645151567118
0.054173581656701005
0.1402519226265188
0.018026764775541895
0.03988139854671864
-0.0012388194577747358
-0.2295642775770063
0.06530731706568772
0.17182931976613763
-0.053183603734113225
0.0509801356283304
0.0230230255534432
-0.08055814807648762
-0.0971390401433798
0.01820549537120503
-0.07538645019470601
0.17582311546497878
-0.044637781795917306
0.15603697228342034
0.08825982609860261
0.024902332492823406
0.1333890100301273
0.07915078760514216
0.10540972253947464
-0.025856049771454996
-0.2624069690162278
0.018891630983025032
0.1806844915665427
-0.11832944531149746
0.003908645804078263
-0.17790606508458562
-0.08631261439839957
-0.05996740956329854
0.03378439365352372
0.02259857441683135
0.1764783467709163
-0.044554543614777765
0.03140803473661324
0.01593174888414747
-0.09924530371832337
0.07551006934966405
0.02033435950987768
0.052085419826860005
0.022049835120415168
-0.12082337793093294
0.05939966869213339
0.26594646213583845
-0.05648593686703894
0.0615666753169509
0.03930594827595632
0.18836630390940215
0.17330203356315876
-0.029564276573085066
0.20049838875965528
-0.12515677007963774
-0.052118756146433014
0.17245430652706642
0.1363741446432567
0.01867275075671872
0.15650870695469807
0.1354678068372357
0.24423121423908908
-0.18971260011786215
-0.06119803299617318
-0.11431384854418436
0.0518060688782807
0.06794773311846944
0.1392562445862076
0.13930307930726482
-0.09771895494880559
0.2255589606761964
0.06900198876873051
0.11977690466911942
0.07682031862955685
-0.2553656945435589
0.03059567715554465
0.3794826908762596
0.10439500841173786
0.09096280838699287
-0.06300614710387732
-0.243120324127344
0.03931943588444293
0.004606338102754797
-0.07984446961962556
-0.3854246116313922
0.026271459066304553
-0.28911806450017474
0.08900085126097718
-0.026444143069517277
0.24093420977867153
0.1762587499792784
0.21359692418591247
-0.08659132468870126
-0.20586519521668178
0.019372993762701126
0.10834250746211296
0.04823109041613163
0.14403406130116198
-0.04055919757128805
-0.15936579815904028
-0.22671313136645416
0.06929841362683471
0.10743543288531304
0.020117451285622555
-0.04693475010627014
0.07635291928059808
-0.08333983165958829
-0.08906597177154107
0.07412088256570756
-0.21787361102058928
-1.2186345022006722
0.28984211827527684
-0.018237401004304057
0.01741727833123679
-0.38762683937858017
-0.2542012490614144
-0.04374112447626641
0.6283976856334339
0.1916274046561183
-0.33739396174126957
-0.5467522748790248
-0.03704430918503689
0.3423628349174288
-0.21247809957968342
-0.738478839997459
0.09262755670668682
-0.7770278174963146
-0.05799636484393171
-0.17146745343266367
0.1280295639536283
0.5065427495162198
-0.7480273813879602
-0.0563539774110753
-0.6564178222080862
0.3020422506362494
0.2286010149620117
-0.02215599886530196
0.3416078177617297
-0.061672355940204024
-0.15828654621209118
0.3274502890216703
0.16323477959708893
-0.08319738717593528
0.14091156907728844
-0.3798867966694137
0.4685517503714939
-0.07288041540262057
0.1797425239221784
0.18941397839222332
-0.0421794427565825
0.04238418924619151
-0.48468036668872366
0.040866834041278
-0.058244547114504296
-0.17809494776189064
0.15446758186739745
-0.0608580557044614
0.15533485163424565
0.12207754521953297
-0.08294518716506152
-0.029275424943795085
0.11109685593069765
0.32254607635001414
-0.29241677563656393
-0.3933698443349872
0.21952545415812338
-0.31489155610567127
0.19793296531360663
-0.16241837253302405
0.1541241937417073
0.19172661455284895
-0.08414634396855114
0.23100506115304306
-0.09052170505556041
0.004149745752206165
-0.15157723525571004
0.027048485255547358
0.06952185050810232
-0.12327032820622463
-0.1296733427520932
0.12869667727997577
-0.029125566377793198
0.02294097487457465
0.06218663891187929
0.19969556244224435
-0.008094860464089495
0.10396387728054458
-0.20903889779259915
-0.17256871989142045
-0.033432359965767475
-0.039326225604172975
0.1009979266481866
0.05765276037706562
-0.07892660864179735
-0.08595377470362826
-0.13857765801722874
0.0787459154347159
0.010681245063790349
0.03356102650887782
0.12820768357347612
-0.12760174214795153
-0.04771793444429637
0.07057995415216452
-0.11401679589029855
-0.02338254160672542
-0.0360082792640737
0.13575006960861885
0.167984969287177
-0.0036122605844272626
0.19036432826701977
0.20805350715175852
0.046979006711840104
0.16567563746448935
-0.06856741846645746
0.091838978773338
-0.06757411585449766
-0.056092417063279366
-0.04348904920557914
-0.1557880020379828
-0.28775385978689466
0.03661472105773656
-0.07786807571916975
-0.2248969284140296
-0.06819404446148505
-0.17965027603370085
-0.24312214277440847
0.1611796499718293
0.25258869920398125
0.0360921938008695
-0.32622739735370154
-0.10654255216332184
0.02019222957333561
-0.009703310882003645
0.1157037472482828
-0.18364522784304863
-0.26824058081720076
0.012269242359424781
-0.09498312253604756
0.03716912366421762
0.13431252236806285
-0.037238246253528354
0.09831566143659845
0.23106060682897456
0.0726110683965052
-0.08428215066313821
0.042720567527066815
0.008636080544603537
-0.04987514379002441
0.06556684174171551
-0.10896765913640011
-0.1545710425674467
0.058590491579019126
-0.042488751590908085
-0.23151995875362388
-0.18524313550668606
-0.10043327194309748
-0.12711455809161334
-0.062120169045885236
0.18142793625958936
-0.15382224816117626
0.029612759544707785
-0.22337164936804996
-0.1230570707921767
0.16256445751996124
-0.21542547711206939
0.13466853390691616
0.11325791385443809
0.03425622718917316
0.1736726797957594
0.10064441524949777
0.04362333476513765
-0.19503599873682304
-0.039231941478095424
0.023720051250593968
-0.02940779966237517
0.1186833251951916
-0.05265425936117394
-0.08214812901442761
0.0536579665958069
-0.13408574930527123
-0.12928931824527115
-0.04247943782089864
-0.038175698732252294
-0.10237550031017273
0.43365534413038864
-0.26266347458508604
0.06251068994042937
0.1688560103454502
0.3697776212273271
-0.10670357223459939
-0.19594712771112613
-0.19500219758277756
0.32092151369222993
-0.1389967155319043
0.41468769512906745
-0.36360453325833103
-0.04233025382765957
-0.12413054989836214
0.03643246713107968
0.050883938642519506
0.24612329107974004
-0.025667198400290664
-0.6798833613453852
-0.217162682132625
-0.45484676815254554
0.07775986320016083
-0.17237774292794159
0.11888070470555598
-0.251176453113448
-0.02744525706762609
-0.013168344215560984
-0.42368791720638177
0.5057113066647522
-0.32769050721117027
-0.011255292123515906
0.011411999921260884
0.12203446692548538
-0.062411205078480615
-0.025663835477252723
0.05721095492105637
0.16251307581519714
-0.011200615020712856
-0.030758692277713363
0.15045461746317024
0.05559642366485924
0.20033241708437902
-0.2659662484611073
0.07571900806027007
0.1714871154386804
0.14170286989944464
-0.10801487932082682
0.2534566083998461
-0.030275902042676106
-0.31733987464668617
-0.327545618093997
-0.3988467589307816
-0.17635125011705063
-0.07126081659965819
0.25508776507138486
-0.1642133339675889
0.08045601364314173
-0.10759595653166887
-0.23948239940829805
-0.14953753037131742
0.10085274388142966
-0.22383394558864217
-0.1796694406471014
0.10532479647660574
0.015358830166386912
-0.09054327502361767
-0.014590730279745884
-0.09314138351274276
0.12241956307524644
-0.04218626350696972
0.012361603187639776
0.04922569050310169
-0.13766141651547492
-0.04074577051871745
0.05763331496886847
0.0023966717732933785
0.04087696373867476
-0.057077752383723784
-0.0868642645802388
-0.02112817514228904
0.02636668524524271
-0.0462428112474859
-0.05039880820558572
-0.022235191101920505
0.07019246205332436
0.011076032159066357
-0.04609138068222122
0.06563002988724939
-0.01148422602200788
0.008363111416401354
-0.11093070657833747
0.07693756468285677
-0.08681299186309502
0.20102420001957777
0.10358582306214892
-0.050816055980162894
0.06579942650392903
-0.05537281500430297
0.14869708321465072
0.05291154814268327
0.0022686115641608836
0.018322125142938617
0.0061460842312450956
-0.014390546501356861
-0.07120977453297628
-0.16347345390437917
-0.16050811243326604
0.021561906245622042
-0.09198025380724219
0.06918985620071981
-0.060612750114247715
0.03452235456069042
-0.011933866731211553
-0.01523798671748098
-0.004372614237797009
0.12144093013579281
-0.15124397975633802
-0.05833426319467486
0.008907303222059421
-0.14069863711632333
0.09893744724642495
-0.0651349318847231
0.19717466822725255
0.07122379815654148
-0.01885232084048088
0.12466174018572959
-0.08784563550561053
-0.0037539179344217924
-0.07766300219763804
-0.015775684877370792
-0.011586557122686528
-0.037664528895021615
-0.07292812120725921
0.03266390417086277
0.031948487400082604
-0.019303483838795047
-0.22642715693408472
-0.08745168418602325
-0.05887145618083095
-0.10106198665193358
0.046037674448380375
-0.010342696600930151
-0.1569762400991911
-0.18473384117333788
0.00212383337809209
0.024736166821943698
0.023086624052486095
0.010353833301181557
0.0017425662993829586
-0.16631213807382872
-0.055383694155928545
0.21411160173774793
0.22363487035376203
0.03236593875585091
-0.01003184682239404
-0.14588215160066284
-0.09878059526378595
0.10116144544544403
0.1326126033937669
-0.032845878525620445
-0.09001265169569896
-0.08676826126129338
-0.029490504093014708
0.17186816067578128
-0.023139193378815696
-0.13448389505488337
-0.021524248775282008
-0.06614578204263508
-0.08786693928243675
-0.11219231261805154
-0.007198667464738809
0.0060579816255436035
-0.03754062373653925
0.030485437282392884
-0.029353394860397085
0.17286730650038926
0.03918008877079376
-0.05697095954454987
0.11311469122700275
-0.1392906063374301
0.05978267368206898
0.10492462292149958
0.15637111820896496
-0.08659194249510953
0.1503747124927411
0.02228870995377432
-0.0063160633505084576
-0.014236623450867472
-0.07215128816679353
-0.09779104354373072
0.1532416077083047
-0.11920955263087282
0.08200091814097794
-0.17655505852202974
-0.04003030053667971
0.01637794153809169
-0.14152020010642996
-0.02620236163212074
0.10941952255282951
0.09465494066649284
-0.0907678361822395
-0.282432981868136
-0.02184897015657323
-0.08192084963023664
0.02634147951733211
-0.16991889556573145
-0.01986712205484804
0.09457014064517337
0.001952491042365754
0.02453444941430867
-0.1342242033400416
0.07678702347530343
0.015194866200681317
-0.03633958830359279
-0.024056783514168678
0.04820780059361191
-0.02071659215721986
-0.07960075729823772
0.015867580622193646
0.10788902453799479
-0.057511000003581475
-0.07284197889136959
0.10637940739950202
-0.11211931494783375
-0.1841080646385474
-0.026084981923222963
0.08375924817100619
0.2798510127492998
0.08349218626456621
-0.07769255231565877
-0.03898694520671925
-0.014069873443236538
0.06538099691834658
-0.031587661253375046
0.02648877418228026
-0.15147084408913364
0.1427557085231275
0.11497773853390808
-0.22298208471274536
-0.05367318335896709
0.2541903430633094
-0.007434207774735314
-0.06529240891435163
0.016924664851315066
-0.014423422729232013
0.4762703469510162
0.15927950250108944
-0.06152793327661184
0.0749231614693907
0.026280860321269073
-0.055724217642665115
0.0866645313012034
0.24734882997683885
-0.054604673765625965
-0.3363060678165683
-0.008610741732086999
-0.22524867888300817
0.19728490904826215
-0.09115960377845471
0.2512550507894948
0.09879843558891055
0.039191208837984624
0.17114046675345773
-0.5310181201054315
-0.034674055242914406
0.02072480578692269
0.12480064193737517
-0.2607163913480767
-0.296484622097533
-0.21544938382334272
0.12638083672260234
-0.03652983131397776
0.024053090488927183
-0.18872789056771097
-0.28216660105468944
0.014359525260312743
0.01268424801066536
0.06744481400930374
-0.10240801417960214
-0.10081288192160526
0.07573869567079738
-0.19232828968530127
0.24724077964215888
0.09426786718269908
-0.0324322461331728
-0.31075268810506196
0.4696481548941015
0.35908318298257347
-0.009053929119663547
0.042485453467852825
0.17279085196279947
-0.05518131796055689
-0.05140895784487007
-0.041321956372592915
0.191562523847111
0.231247675234307
-0.10065445822032755
0.1809133256929042
0.09676334785133078
-0.15124708324321592
-0.07561612862232163
-0.06103405369171885
0.14093306763766847
0.25135012255837974
0.11083474788882165
-0.09019689899525091
0.06435800017590391
0.13185251108406285
-0.03523586355698674
-0.009956014670790153
-0.13553425010523007
0.051894573744610865
0.07683839964624362
0.10175343180809192
0.1225122106036431
0.11563925305698955
-0.016799446268079308
0.10049242629887903
0.02565815371149833
0.05311750443852698
0.1413718856996665
-0.10497642251988132
-0.20179545847506203
-0.07560972389797391
0.07363027747101902
-0.05690068720453116
0.08164731594033396
-0.04984614724588722
0.011130927207372025
0.05920733859766994
-0.18363584796357382
-0.0049061712653427954
-0.15011203753729224
0.11360840315085849
-0.20322664037991903
-0.19008055779167687
0.12290022692847975
-0.222156568472925
0.034390928961868426
0.03659134600292299
0.051613120770431294
0.10840608699972974
0.02375732733337107
-0.1308709002149114
0.04077233569230312
-0.13788249500764024
0.011617571795353958
-0.007927993221488213
0.037535286586658265
-0.01099184920087148
0.32530876744023146
-0.6175890347457824
0.34428982395696933
-0.14960563841273317
-0.2942973628513448
-0.076332869805671
-0.10913353635660791
-0.19940154437549967
0.04163165100392119
0.19438743026111133
-0.03801296420958268
-0.19323379577137925
-0.36291557281819564
-0.0935472427031332
-0.19443925119387243
-0.2574553511587988
-0.3807722626135267
-0.17379626478446042
0.5169770320214898
-0.31696572900735187
0.11945831262516202
0.32904497535648575
0.06824523227405639
0.045755178793394545
-0.15639184822436109
0.08873770218699809
0.2594885349282311
-0.21012323094776633
0.2548049177728828
-0.05511030731280713
-0.08101060613604168
-0.07497253138607829
-0.026294369456824857
0.03275219560171201
0.026375982418791966
-0.17896710099159122
0.07174374686321579
-0.12880362220998678
-0.07382386158356218
-0.15761665510490336
-0.12317182138510964
-0.08857756906056506
0.23029783977121837
0.21919909058106316
-0.03226218311591761
0.03212713514612912
-0.3719141598231693
0.23701234937805118
-0.16079367244639747
0.035005918173254005
0.01858878809283809
-0.04158119287777844
0.006593699620306666
-0.10718770659996
0.063153342697962
-0.20655406385759323
0.07380511103467816
0.14517032481887635
-0.15798712403126575
-0.10047921518662492
0.08361767264589867
0.14912350744476024
0.16803927439713623
-0.09437057918412937
0.27430789684731127
-0.05355191293160928
0.10596620702576479
-0.05626262643286657
0.10909862597681538
0.21166773864542238
-0.03239468598199687
-0.14270049938415708
-0.037953044186715135
-0.01113157092252127
-0.021247767711620187
-0.03916221890313185
-0.04189725663389392
0.05114868290485327
0.1474305643916981
0.024533373149455393
-0.037215350618347465
-0.17019056774160116
0.10599871164628089
-0.12875650077251757
0.1138463217491646
-0.08806072595453912
0.03499544246292671
0.1528258117780675
-0.05293036418565187
-0.1403411527534027
0.0862413881292682
-0.13272714721743328
-0.14308853424223436
0.053774560450910315
-0.0010350188344580035
-0.04782235114615363
0.0699553460058723
0.09472968883752515
-0.10411285714170182
0.08163661876741275
0.19070197240062337
0.0776719281222636
0.2070859157214487
0.009059458770594967
0.003957465427154478
-0.2100866917528241
0.07809726285783149
0.008841795958042499
0.2305983135783706
0.2223735390442329
0.07870706228765573
-0.31127058050725787
-0.41886268708535745
-0.023361283356661516
-0.23341969920927855
0.29934077643539375
0.21222892201180385
-0.06790232097934051
0.3833502831153822
-0.15215426939198182
-0.1027665585082005
0.15639509191695622
0.0977470875647003
0.4284383916641778
-0.30104845994619844
-0.04348868332505295
0.06819356757187127
-0.10609310155666997
0.02277527919866277
-0.020987664683201568
-0.3187226617214167
0.3347925592091667
-0.11976088629368094
-0.06676556242001654
-0.05011647284196811
-0.2301565478415793
-0.06276839779713993
-0.17845901890536792
0.07189074492137168
-0.08718296284466796
-0.20646927868130457
-0.27064330323668995
0.07919345267712669
0.027607119586111447
-0.19186997305519166
0.03564253228350438
0.16469831673031357
-0.3932765374486817
-0.18406495338723736
0.20729817621158503
0.04062762454908412
0.18037114002306937
-0.13682323046697845
-0.14358361272318337
0.19838706388926813
0.09323760659331388
0.030419686012540807
0.026502805855837957
0.0403925791940004
0.23760928387150668
0.19013741328882383
0.1862158154879358
-0.03314635559144818
-0.16460448113631934
-0.05865201086158256
0.08073038561174387
0.05994385992278481
0.06402026262640548
-0.012586445091044628
0.275834795089745
0.03000709749965353
-0.05801169690291641
-0.08491982389519075
-0.06385239715494768
0.1093298022792739
0.09725346858528999
-0.043134148823663974
0.11958765303475564
-0.06926655708802633
0.05251545309542362
-0.1294842517125389
-0.011563494374188906
-0.01573994165087123
-0.07817061750496343
-0.03730309137639212
-0.05781464652428753
-0.07729394684362335
0.015266990778031932
0.18098485065186476
0.030847467272081597
0.018564210158439672
-0.11899892848962661
0.05827087333278007
0.010746333158684073
0.045623043761462756
-0.2904292586715273
-0.05510448391418506
-0.12671947988714818
-0.030194957447102096
-0.05332053973131856
-0.09940499906971527
0.0607866664553946
0.11623479438554414
-0.034900060382031306
0.0788162441642422
0.005416582201907752
-0.18853239292008445
0.04188488196828823
-0.03916249320544343
0.037545407905167597
0.18218209674750138
-0.29561132791682104
-0.0841305895228358
-0.21586606888141358
-0.17064101943193338
0.43430839063657456
-0.3100783634473836
0.3646462635326309
-0.07602066139808743
-0.5746186913151853
0.11085813900094287
0.3154195990017472
-0.3232557348333166
-0.286392816023539
-0.15710910782378915
0.2674441295283446
0.38916785944900056
-0.12793083016339166
0.05450796063624706
-0.08511905774124105
0.20918302372833
-0.2417678587356981
0.20801094673387102
-0.16890030575753806
0.25175745748004896
0.22221524905348938
0.06998521787230713
0.1798366841777422
-0.3398390648938568
0.1419876813928292
-0.09393190604658118
0.10522162124623638
0.24076170195683513
-0.020892648999917544
0.060024835085524544
0.13418039362344145
0.09761612639931651
-0.012592184602901364
-0.011386326772557766
-0.16977160236720917
-0.20094154700562086
0.0879345968615493
0.028197478597028085
0.21322926207519283
0.20955283973244626
0.14964764321761154
0.09866273112728016
-0.16051085121129163
0.023301389641779226
0.06936478553632301
0.06634105979853504
-0.028312785805297086
0.03972150117957607
-0.009335670819766918
0.07976727331654014
0.08752401606881001
-0.2332226141936328
0.12754627901253088
-0.0031917667213295477
0.025205051268000867
-0.3111614544091222
0.029141723704861892
-0.17678678445055054
-0.24487822383657454
-0.15603257720556346
0.009156444400940556
-0.09531213937151642
-0.09791410847866507
0.3245040600514703
-0.008457714813424014
-0.007012482592087845
0.4154065597541388
-0.12267768388169417
0.08978860878344726
0.06862256405301358
0.11490406871563101
0.1517811478210937
0.17856307462009866
-0.12998228674335016
0.08765373856987274
-0.10360950688951745
0.07206230209856544
-0.015324722139934717
0.13828335351990503
0.17269294646423888
-0.15185922727153683
0.3557654954619652
0.13881682077399055
0.08269116435197989
-0.04751322268811547
0.17179969777991594
-0.19983589728668594
0.2911033580278154
0.10163945548752853
0.05622069526668853
0.23305355580672582
-0.06479268271040158
0.015757837027490826
-0.1860658951847876
0.011554245254310423
-0.02195039231167732
-0.12395513537840329
0.1766520650305831
0.06229734656682121
0.11489836733885944
-0.1709298098784679
0.21596239055632815
-0.09230131459809476
-0.23012517277056954
-0.1358986142959223
-0.12883927738926404
-0.09639638102852124
-0.15237635722109094
-0.11031600757076582
-0.014787856642965353
0.2240623941378645
0.08742707198125389
-0.02500472066617343
-0.15697308583128888
-0.24851147058030165
-0.10207666691676287
-0.14824194619635486
-0.016870229415867067
0.13326924897762954
0.16389581586938753
0.0271437856468754
0.19242667659016208
-0.10137909719649087
0.07736996628837899
0.1197173978081708
-0.08581645543343736
-0.08401539680990325
-0.169552739821543
-0.0625499027673108
-0.012112227834560167
0.05004993115606901
-0.09649719212462625
0.033862915448838536
-0.08014840415744469
-0.11601582748024517
-0.022819521104767225
-0.033734774363821114
-0.016896173731562457
-0.007304686598670746
-0.041338709255477654
0.18213289224109214
0.039491204436637554
-0.0730720909498724
0.06016757365317756
-0.017794515703371264
-0.219221325206117
0.16455247994216546
-0.06059352187438266
0.04776910583852346
-0.009704900697877538
0.025405330912338264
0.15967247902510306
-0.13316191692175436
0.004846625390342945
0.01501476904614527
-0.11528537448348951
0.05361230401915344
0.15949827699715396
-0.13186293111590972
0.09512474627374647
-0.11005407559547986
0.048995364420461436
0.10689127483631553
0.11120225144197535
-0.03721869701439654
-0.09008848330581429
-0.01535994351559839
0.16693938455980653
0.0764255904046583
0.06814531628660639
-0.015050982203606919
-0.07827610853822721
-0.1606515616706997
-0.06573434485438918
0.01770816203595553
-0.0036025359984064123
0.02508859818042242
-0.0692932618033226
-0.04209143882546634
-0.08064133162042049
-0.08345303593716286
0.018969230389584295
-0.05761831801870438
-0.0502588608061914
-0.10684469967493439
-0.10369959156611926
-0.03722931981506213
-0.017286014675429194
0.08605225526077054
-0.010808287043866228
0.024371738506232338
-0.012564849534426303
-0.07783488763750065
-0.05144117024066224
0.051233843909762815
-0.058959044353422405
-0.16042081057438956
-0.08679543922705976
-0.04286274667884026
-0.015486550737011306
0.018676151067576256
0.032066970041648934
-0.05539154311717779
0.07446305630179496
0.1117411267925611
1.6704989607457637
-0.08951714158402642
-0.665390792383231
0.22798677104642492
-1.8640409792553307
-1.5666112340617737
-1.2014241311372633
1.0627761428225042
-1.3311446308253654
0.0018857509741214348
0.35005132445592047
-2.3538200259510837
-0.7678601980424764
0.275238210968581
0.3833217412234742
0.26613509416787856
1.6716204332550475
-0.006165147919525108
1.4368663722084747
0.07011748410815931
-0.6520224343328199
0.6906693688638449
0.42504449229672225
0.6728682934429016
-0.8890112525118136
-1.8162134021352863
1.3081908794780364
-0.10060486922459999
-0.31595208192342333
-0.4492289485737636
-1.4561555871046241
-1.2032302965943549
-0.2280240290238465
0.1256023984675163
0.28709060153201976
1.5732433768438687
0.40942223219707824
0.20848173683022267
1.5737089556851067
0.09478660955335166
-1.106957646041982
2.0687734288558906
0.41861773599404484
-0.1230699241010317
-0.39139741662566296
-0.43186042252193374
1.0513858760618238
1.3273831225996124
-1.3982532077490595
-1.2608363968899907
-0.2644983768134282
0.15109738307781206
0.5168425845682202
-1.3571924292312054
-0.5091721092923549
0.07554685139282029
-0.08206405938463668
0.37030053017210673
-0.08834838976047873
-0.5004196414016823
2.285827451793596
-0.16907257939923354
0.42915718447026846
-0.18147284492909005
1.233694583193857
-1.3774899306299857
-0.001915708201481456
0.7865899827257358
1.5714099988983443
-0.6055406871583252
-2.1045351599617956
-0.49645708508024605
0.973429314340314
0.11655213656309929
-1.2081200226267237
-0.0951354731595822
0.032450862389215594
0.6865818188114253
-0.3355181842461181
0.989246872391069
-2.120733405568996
1.5526532812630993
-1.774019586590142
-0.8878190803235966
-1.3858552662482646
-0.1809545624983283
-0.43153508362185944
1.346703811782749
-0.3205479708298712
0.2996236913851809
2.1135154484826617
0.47711613179724843
0.6438976629802252
0.16053381260551644
-0.7443261325032604
-0.06672246249156444
-0.46888478212460527
0.9969961106906035
1.151016034129526
-2.2678933537291046
-0.2950979746421031
-0.06201784651208051
0.07172165036344513
-0.38369357353330996
-0.4062417509897002
-0.11064354339775524
0.24023600392791117
0.08080291713698312
-0.2458766894260703
-0.5289562537029693
0.09176887599748457
-0.10662013603959407
0.37504584649837197
0.011757273100648457
-0.12453817651063517
0.1824830496944664
-0.1471996309194977
0.34248310350495925
-0.31887080127770756
0.135943046835966
-0.1676433685012103
-0.2028876688035648
-0.07820554949646061
0.2027060131254963
-0.19074151214340979
0.06884695356785422
0.1728114189865161
-0.15791623172152397
0.2153080151170287
0.13220340710681167
0.21615764776289584
-0.13859655279719585
-0.1911922204282744
0.5714962619293843
0.2705544290546009
0.2404111608513375
-0.046797324037892565
-0.011119372816042394
-0.2252545414623279
0.14411908007647256
-0.09305420687847199
0.09155073340333564
-0.30697682000786813
-0.31763622886329607
0.08054993259013012
-0.19177202596204193
-0.24849751890416893
0.11310745307218903
0.024370430123093208
0.3951591062221421
-0.20898475286651105
0.22484960710388424
-0.05953202018492045
-0.4405336573042737
0.34497571196235693
0.02131046064839765
0.04091456225588941
-0.32009534459822153
0.1045745099042581
-0.6414962445861048
-0.10856741094215824
-0.4179217682342266
-0.026991185370048763
0.4683948726601679
0.1936247366559085
0.2202692258625443
-0.011752188632331219
-0.16052642086905894
-0.15151889515210223
0.27290953768092646
-0.18328852731833264
0.014927264203107658
-0.36193449070825734
0.7425916421136881
0.45237952133606885
-0.026686494668624577
-0.3736011107947591
0.03429134151475834
-0.42891252927935325
-0.18990136962657658
0.015252469887296784
-0.016811697178665427
-0.0060973838460408065
0.009217758737974768
0.1392459383912472
-0.227668565100499
0.19356857761115628
-0.19877443788319962
0.21948622591666087
-0.11416938940988865
0.10963453304434755
-0.22752949647332193
0.14334796183011264
-0.09005324530997681
0.33759308325800796
-0.044762272699547405
-0.12114551175814756
0.05672855060790264
0.047318036892743595
0.06294170994161503
-0.0509883928991998
-0.0069760627762197715
-0.21012927513082844
-0.24521741598401992
0.14787486447239112
-0.12267150194972451
-0.14961232633641156
0.031670733330482606
-0.0425246146298822
0.20829800008209168
-0.06345277582397274
0.005764790660775054
0.17249070631826072
-0.015181771507415245
0.07575276803158872
-0.19357615802543865
-0.18321504463407565
0.17015571350495046
-0.1864403788840782
-0.06605032449699798
0.1378660795804706
0.09205633605592727
0.13878401424823938
0.008872721577726346
-0.020401386092199915
0.2480413017071257
-0.009891601755542103
0.1398147069612878
-0.06703201296034045
-0.04956163751958922
0.08080058817725261
-0.09002584943647055
-0.1511633143885131
0.0705803054275953
0.10114140776969442
-0.07777293856621159
0.2554126372960336
-0.13961025138562844
0.2569044073112922
-0.2615263155967312
-0.015680688516419367
0.2946905513322754
-0.009918655441244907
0.09457029309258888
0.10828735183490056
-0.05681984061926169
0.028307109329943736
0.12886656104470917
-0.11371832429457844
-0.011745240647025009
0.4422977466788859
0.08707813878198663
0.27152512025462133
-0.131817969118272
0.002435734483292893
0.04739491489274868
-0.045059533069945
0.020269582448374145
0.13516227307449905
0.06603221525729533
-0.11545449417496562
0.11020005586479822
-0.06925398725178984
0.04392608450961347
-0.03685590687898067
0.07519773139712219
0.05603300898415801
0.09236904218922738
0.09748059914972919
0.042854445928517775
0.3251491302220139
0.24933261068734064
0.35803859266529325
0.12926847368323952
0.08587024626468531
0.2125806178482648
-0.04409329467583843
-0.035112976362158314
-0.051856827272955895
-0.0006959532412968879
-0.07427852212169841
0.005349488895082486
-0.13380553319634225
0.01394574241843554
0.028480464511025826
0.1059868546267052
-0.1162260235900324
-0.15001627102047219
0.07817817230054837
0.17839768606461318
0.11242890575003006
0.028825621920220864
-0.04883766268001791
-0.2323261848636767
0.05942972041878116
-0.10841973256949643
0.21655894642373033
0.09393277190171463
0.03150578439913134
-0.01709802996160174
0.1936914878787733
0.08904781949804721
0.09027446852161632
-0.0940017322213883
0.15277380077501962
-0.043729067265590775
-0.04326834988899197
-0.047738685523152496
0.1332884251411427
-0.04392156077796225
-0.01624637831283535
-0.003483256453650704
-0.09751313571319122
0.16705671008420434
0.02356058357435222
0.013647674148677397
-0.08742658220174558
-0.029467677088533487
-0.0325588515056554
-0.056174762954959184
0.12419605143252513
-0.11985748578414823
0.028616801356063995
0.03996552447237404
-0.062328610209685685
-0.025198127051523782
-0.05451899820310682
0.11310591277590473
0.039748811365603466
-0.10095074498110398
0.022690684226234853
-0.021047078780669817
0.11383560842563818
-0.07602763767224603
-0.12720133339486206
-0.11760816335978293
0.037338779295101876
-0.09591226159878083
0.08090031486055647
-0.017121095449475463
0.12441324775735471
-0.1862844724562787
-0.05936930784556417
0.21107500125858694
-0.17171059104470407
0.18491067770548644
0.008220043309811177
-0.061122656206014696
0.06307137027752684
-0.04300875005130054
-0.051973824511101115
-0.1363605216067323
0.12696602931406187
0.007367176374603533
0.09489274620025302
0.15179495875391816
-0.0005945159877777722
0.010997244041982887
0.13966118012961823
0.3252846306268386
0.16643176523841868
0.05466538071585585
0.015925712593560164
-0.04582836842743452
-0.08393069356054891
0.050489960608904795
0.11378221782900244
0.036138873140385434
-0.022522619959854093
-0.08871901236028962
-0.05328639984338273
-0.06020116342202277
-0.03793733021407088
0.027996517860919005
-0.039677987654660206
-0.015025395131034309
-0.05354882318803058
0.03171627850408982
0.12624209745863624
-0.30699763113761597
-0.14269809396925612
0.06786532764153515
-0.05679028497811722
0.0005157890479302266
0.12431447784834192
-0.009879084405597274
-0.06709495928932456
-0.12236046553915964
-0.12060784896132931
-0.028909476254053504
0.09879612035737675
0.06729426509123006
-0.16912039409247287
0.0023361148563104807
-0.05345303706013295
0.1372298787129289
0.20008318615072943
0.04338501457639827
0.14000265924236266
0.16971284287578253
-0.03226130450420735
-0.02343619563413248
0.07232322396569763
0.08023823582747171
0.11633215056053825
-0.00875138792876054
0.07802540948821056
0.07144718220560854
-0.08409200207380707
0.0024560246211752
0.11139692416813968
-0.07101049935762363
-0.050710760854418946
-0.10609318444215597
0.34152109200551223
0.07885907613868705
0.09558648796085503
0.09093338220571501
0.049511312638043044
-0.09473722778308198
-0.1452280253691057
-0.08852320083469217
-0.025102712258616034
-0.027699146743294194
0.039648182738239085
0.05188248087576209
-0.020423053400420443
-0.08837733155923129
0.18003234604902263
-0.17548001014054693
-0.1279029949464555
-0.12133079204273152
-0.07426955508047016
-0.061313357632097276
-0.01866255697576639
-0.02499545812696503
-0.2571733396382431
-0.06832190820973327
0.2398582126649434
0.0970154946996598
-0.06730003954116912
-0.003725263811701559
0.047802980630628586
-0.013787196879255864
0.0037097667474149387
-1.0023794835496873
-0.5640574991827574
-0.5821889075548443
-0.6950759471520312
-0.14600229973585074
-0.2823499923873878
-0.1647227552431631
0.16124838273804185
0.020056946264740635
0.06429188183448678
-0.09988625844367921
0.259599273429034
0.14832109381306802
-0.0391106135057386
0.10095657710440276
-0.738807404189039
0.12224260913955891
0.22105571661386123
-0.17007746035638616
-0.36530861305018814
-0.6551570743089177
0.19045195818405328
0.015604141848353799
0.05591096524498215
-0.27351474597616565
-0.18823076339149145
-0.2100609375621674
-0.07165622257098478
-0.08143420156010825
-0.10689620583883534
0.05869744117373555
0.02107139833195453
0.17526801184529778
-0.09363033117392885
0.007566890085459308
0.03354570485425741
0.13834335165159864
-0.08733335481226547
0.17701289929101438
-0.2856125431693252
0.2571442051411768
-0.007621259371479097
-0.0013422788892370984
-0.021279166334181154
0.17290070728637652
0.08899140903551114
0.018087926298294657
-0.00738350735415694
0.09115911241533489
0.09576192625860314
0.2579159507494464
0.10177218678183766
-0.2554723512035738
0.07194644628093716
0.08219146695211622
-0.0007475001924234065
0.02144300559426631
0.08427341391354083
0.08615148909184955
0.1672500836063473
0.19574268083092594
0.10370031290013354
0.07281218974543058
-0.08802676197404996
0.2009929386103007
0.1939060309686358
-0.10541259142283187
0.03635321046171836
-0.0019466397747471566
-0.016320251658610015
-0.08592840765967914
-0.1160399942759889
0.01668093971197608
0.18357741774708342
-0.07685706259476209
0.07484506451696532
-0.01189139866319851
-0.15517008881464056
0.1849128079889403
-0.039008372069044187
0.08869210332099949
0.031292303550821805
-0.010438099934516777
-0.0914763951653413
-0.20421415578920907
0.04080547972010522
0.026389907783407326
0.11600177930245607
0.08969439890765601
0.07327834127112755
0.2698992889379234
0.29930084912403637
0.08379448304057097
0.03420833404534293
-0.03966109473578179
0.10763942856705828
0.05300878623916921
0.09610329676825673
0.03759361965916618
0.020382285657810802
0.22161192567571703
-0.030942080211742017
-0.0046606138930153345
-0.07018148375831593
0.13578661918720838
-0.08002246401994216
-0.06762153438588074
0.09754014605646735
0.009469285892631513
0.3432113672057614
0.14404304877302582
0.07155635689743967
0.16830177504364
0.011821474907204201
0.10544303177610509
0.07922955852078505
0.02900543262140321
-0.3032898017357224
-0.07765757857695357
-0.11693423529113553
-0.017691434972358984
0.2729496354723231
0.008937982388111786
0.11093556069424194
-0.15472004982861556
-0.1461477492235041
0.1805464891973747
-0.05480145546333341
0.05952408220801578
0.022142004902719274
0.04954854357982165
0.0739067196760513
0.1854745616520374
0.0782990145587778
0.021638308458605454
0.0554413967702519
0.2021331256871224
0.09173646946175593
0.1627769664482624
0.14260428382686635
-0.24718358708126265
0.020495265798131563
-0.15216153751345732
0.12165484478389801
-0.36826320981919963
0.20380092214524279
-0.06749570534919452
0.09005671013167697
-0.13113966464264365
-0.018807574859365513
-0.20328756066597703
-0.03998009935811941
-0.09815098688270274
0.09347534192332799
-0.09784724050960297
-0.01492153589165221
0.03192346224692881
0.04232378966256056
0.14287110432914282
-0.00933507715554751
0.023869970982094108
-0.056680885074261236
0.0283172014415863
0.34275595329886344
-0.043128816730968925
-0.006780881546660563
0.014194541294364234
0.059099621428347286
-0.12593714081633536
0.09105787118897721
-0.02623892214912371
0.05476487320388867
-0.08990117924373539
-0.08766448885405487
0.035206519799544915
-0.24761032601756452
0.042071116823072595
-0.1950139766784135
-0.21870575735641948
-0.086503485787659
0.09968152653532131
0.015605645973453704
0.030804719353692354
0.06548024204296357
0.028283320921144987
-0.03755243552185477
0.08811361554641221
-0.05603182500774438
-0.06918493060039334
-0.033634752623297494
0.11632362026887294
0.0980400539332897
-0.06972666985396504
0.18186332541525083
-0.21307818966532838
-0.026384400553846474
-0.13904255888553005
-0.08533978105691742
0.049995996909640086
-0.10813870076818752
-0.01368527625054919
0.04446120129550127
-0.050237003815451875
-0.2310709228772298
0.05215909003762124
-0.10671927538042343
0.07098264762320906
0.02214614681896717
0.011030776404703665
-0.03317407703281905
-0.2320739879758317
-0.017345035038180898
-0.1323700468604876
-0.11490843256471675
-0.20249074211105242
-0.002575319114161057
0.06426510876695309
0.11873736262048494
-0.09084493846195608
-0.07949272302088622
0.17858133726659436
-0.088462981609972
-0.011679053349201027
0.1891466962461042
-0.28154528520232236
-0.11210844095041264
0.015325768806256272
-0.12383717391385546
0.05617843565701648
-0.2091991877611218
-0.009088282004641655
0.03865152325094243
-0.20805608032177372
-0.003936299553367264
-0.19133587047586517
-0.028215718702955084
-0.11918028328136897
-0.054398375211961884
-0.023647567502894085
-0.08409004225300921
-0.11886682091864002
0.01716890223378587
-0.046334707783859716
0.11050801292376972
0.11663685070519719
-0.11219315870336327
0.17967633634454527
0.01065981190426682
-0.0024292060548299953
-0.23302490367130707
-0.09216561371928429
0.2133169281483992
0.09876186086082261
0.3021530383574242
-0.19185157975349768
0.02806804082476372
-0.03373716910951569
-0.08383018174613016
0.14550160567059253
0.19357757286983449
0.1956122078197466
0.08277607178704043
0.06974475426666439
0.32295078059225324
-0.028620981119216352
-0.1274291658095818
-0.05180174397648378
0.07123129371562777
0.1272327492246507
-0.004943314416228266
-0.1850024408907341
0.04456880968485244
-0.0039863726830308395
0.011842969591299938
0.11086691152931989
0.07489816179382817
-0.16167894802936927
-0.15009904218841405
0.1363914477447398
0.03934458394884192
0.14151959603683278
-0.08397236109038433
0.04522281386009176
0.034507160492282855
0.15896081742321158
-0.06282117651293226
-0.08928745695172106
-0.04507556195292225
0.05409359654752363
0.04677933862814849
-0.13117382470257263
-0.04980790250168249
-0.03328360734252295
0.16742696670976498
-0.003206899858446735
-0.08192182443429086
-0.07151354836998525
-0.006888248563035445
-0.1440366678242453
0.18796154091753464
-0.08875171186473092
-0.07108498006329447
-0.15424667006900464
-0.08320656441182853
-0.15487527512616453
-0.04444173608945651
0.06929496766509513
0.11672173785318539
0.08412089785060452
0.1430525410370419
-0.0850739816358863
-0.023334953688438572
-0.04520548323009669
0.03965041388793659
-0.07016666077512794
0.03268874951508708
-0.2401983845758103
0.005196850906768533
-0.2581044047553887
0.16551685989705592
0.042025579061253385
0.11700756842747284
0.0184787950150124
-0.20606704783290053
0.060442456176855355
0.1736874395777668
-0.03355201413925414
-0.18285008431137081
-0.04552443330568464
-0.12585401622826045
0.04504877732549376
0.1692454035857779
0.07759352758676002
-0.11867750580800725
-0.11320277536886186
0.041107587899841765
-0.06413296058899291
0.09462863612376105
-0.13446811277505424
-0.011069203008623196
-0.13935727897980604
0.0566857475410566
-0.02477848345136458
0.021230665474105997
-0.05789926846595255
-0.03749846418484327
-0.24357012743959974
0.0494318686277065
-0.03532085730615833
-0.032767731978039255
0.004909769353119491
-0.15548051692350584
-0.004314228524360238
-0.22245955184250324
0.10395742342482042
0.09415542341341214
0.0019481409410267252
0.056442673464724244
0.04370686880383426
0.054774270313745654
0.04989968214316166
0.0167451006862225
0.007445503850364313
0.0625222148765554
0.09825087020047418
0.016872929869540705
-0.11468339993546316
0.026713573870676847
-0.032734716985250316
-0.08716237566698855
0.06298245682538375
0.0810533395795981
0.013225435196832325
0.09241845928478376
-0.13271669487455015
-0.021768483513915315
-0.10974612518229543
0.1019518215344886
0.21040354436463019
0.12116504561382224
0.03842197056258906
-0.09503653019361
0.0536160841918457
-0.013026392273031347
0.016006832314095935
0.005420950502169112
-0.44362185686580463
-0.1528169378564897
-0.061149734114401964
-0.24997962052447342
-0.15162703228026148
0.12137363106516377
0.21622441892070526
-0.0739684655549128
-0.04064982561791619
-0.174880920697665
0.3141500645184662
-0.0859996884205663
0.3420480524301959
-0.1854038734628026
-0.20429556493150317
-0.02742551785187316
0.23566979838033236
-0.3690732253979014
-0.30895532326691433
-0.7447079651619064
-0.004621973044482147
0.3930277374197027
-0.2570223650263508
-0.014205050614157458
-0.14402277647467177
-0.03571424480062769
-0.14646612366981115
-0.07563574094272807
-0.1990984295694506
0.021040311469382476
-0.10998682635488223
0.05950848355586548
0.23290188724136185
0.06716440963761101
-0.13359903310775642
0.10701557593683621
-0.1270374735947105
0.17692036547320358
-0.15866154802277496
0.17566982585120505
-0.0915676856603231
-0.10164001681038688
0.29709000522510476
0.06304540082143606
-0.09938159091490667
-0.07934646376745709
0.03758013060904425
-0.09279474232673478
0.17959917891144234
0.052405212198472904
-0.06470459976413352
-0.19468813120810866
0.05197921834546117
0.1781792052885427
0.1709548033363606
0.09455858416727793
-0.11817549866691401
0.1415076050389377
-0.16113387398024281
-0.07339792923412197
-0.11684910972860625
0.08795055620773412
0.10930775143003961
0.04976904274045447
-0.0700414135394798
0.050273136162089234
0.0470417507629073
0.021206139804409118
0.07319041399475995
0.05393093572457647
-0.0016626851530777056
0.15108555600108436
0.389050381403666
-0.20016051274994082
-0.04041484011168498
-0.28152723360072407
-0.06811122358593567
0.1471944255177668
0.2059226920107802
-0.05534488065545693
0.031180012069111064
0.19945493350072596
0.03466989360111055
-0.0576255357810275
-0.05116850903555839
0.009098848121447276
0.1353222703464314
0.0814677891688989
0.35113743431770916
0.32767279216365514
-0.04672625090016396
-0.013385357129806152
-0.09170868397509722
-0.013866159712983423
-0.20651894345752858
0.003230905196412808
-0.16420317395711997
0.19430376955930653
-0.022432844572897147
0.057980101165875896
-0.15119563688605145
0.07814411406332815
-0.029483549333430486
-0.0835917860707506
-0.8263401459944687
-0.31566694210820084
-0.31626031076206235
-0.5872567205264015
-0.2745576041309286
-0.15716624614918526
-0.32544584850314867
0.4884743942145705
-0.04987735308271495
-0.017625624112246264
-0.18913086021520062
-0.026900752311519255
-0.13233761551205417
-0.10679099317200731
0.07025664509663923
-0.39303444252520736
0.05035054070535778
0.0041642633482745954
-0.1764475013058123
-0.07372301753607667
-0.23901387874402455
-0.09748638991953813
-0.2418168556339049
0.07548072146981488
-0.22498998538823314
-0.06399593442436599
0.04275402817892669
-0.08788812685795823
0.17970790418483995
-0.10289372773409804
-0.0229446670805948
0.1532194576829066
0.15634980481099295
0.07580210918028876
0.0748206083120091
-0.04192982816465513
0.1491869589459634
-0.16973231566204994
0.05174558641816662
-0.19583924417611165
-0.08006673801831056
-0.024717496727482684
-0.14501053644903086
0.08057775417346276
0.11773709875873338
0.10512596685818554
-0.10226735936471754
-0.08035832958736301
-0.07191825556766887
-0.08382494412379127
-0.028961519119194187
0.2044899145206453
0.22785301399031663
0.13537066005979842
-0.06940714172195526
0.14850063783731002
-0.013563550888630933
0.017943341847396106
-0.06958895009381341
0.048664692916177484
-0.06957994682284696
-0.06424439464057895
-0.007604565102539856
0.07189682318936419
0.041502479109538616
-0.0036044921720209556
-0.07876805471271783
-0.058586285602796634
-0.05500290387669702
-0.04126351933571672
-0.10874304259146915
0.09892905798430836
0.052429094765991544
0.17269748867409634
-0.19088889205596804
0.10846094309312689
0.04251562471656982
0.05280013673158775
-0.013274022077864617
0.21588763605759792
0.04618532356761427
0.07671515542662302
-0.07720141302267526
-0.0038405566367763276
-0.09353056420753394
-0.02423357477107851
-0.13228546819142273
-0.23435316700271255
0.0986980167060568
-0.016554894872958907
0.20574625345221456
0.11161629957077801
0.13512679734536356
0.11803353105055968
-0.05787711238344152
0.08457192917212157
-0.11319862344737251
0.1716781387781809
0.02439330192409866
-0.0237724620891739
0.03275364122237814
0.029602571541025805
-0.13726996504205188
0.1085780994433677
0.07694619154171257
0.11879820478750162
-0.168788882615359
0.005620038682696863
-0.19322392415045522
0.23517337056300927
0.06775636663121719
0.055699318472151677
0.07034186481316072
0.02511351458100407
0.058074188148222426
-0.17628878430632147
-0.03893382018199337
-0.10769741531590826
-0.03922549201590662
-0.00043615865019664833
0.24802640680951604
0.07281713383168854
-0.11836664769209321
0.08241478348858344
-0.21633557979188445
-0.11678351756105344
0.10829018352940878
-0.0016139292248301658
0.12349676463510349
-0.0011247760897376783
0.2512101038896472
-0.06452695843194262
0.08916895555130044
0.018499362398435904
-0.00984978564868219
0.055182851496838284
0.07808421109577493
0.09611086899092511
-0.0788930511917767
0.13639223758434563
-0.025589854292438385
0.0014309728157747147
0.09456437820393121
0.01710536009051504
-0.008836766220317068
-0.054065242335550656
0.06716905868367429
0.08509737495756964
-0.0033602038183704157
-0.09227341898397191
-0.047101858792883866
0.13116354688133872
-0.13347100750427401
-0.038921524976913556
-0.09548539820487449
0.11946160658838344
0.1604648804806581
-0.07392692630804536
0.03288823035679195
0.15246579331421378
0.06678775892149114
-0.07969541899856379
-0.17959143986425558
0.13974162701860773
-0.14907864451682268
-0.04573395185027225
0.04321942853793642
-0.022235761491740117
-0.05678807032148514
0.08976941018151507
-0.058790095623384546
-0.09945033830096768
0.07588296238414129
0.027324446563841337
-0.08404502968318243
-0.0029848177979111615
0.030342038325325563
-0.04267435370883843
-0.04722246091865516
0.01796843503961117
-0.18814941359610834
0.35615044439154664
0.10867747342096805
-0.18671130330209582
-0.18275358077979062
-0.2740505061993316
0.306215114012396
-0.029237166719025574
0.16083132125711702
-0.16890601555316853
-0.14946578327877327
0.09769610050071005
-0.28485825548098626
-0.23646655577932907
-0.14184590618392892
-0.16182026976364877
0.1313157549989316
-0.2590647317335611
-0.24509584032050408
-0.12504916885329467
-0.28197822837364667
-0.033878638006989675
-0.11286292081402781
0.14819804149631802
-0.08418461422806749
0.04513507668727969
-0.08681652588908628
0.0836147060625761
-0.11639509830247811
-0.08753458129359848
-0.2576691412644692
-0.004400301046348611
-0.0628264306275765
-0.005253956756528079
-0.29394784351948666
0.213252028094107
0.17653778925924987
-0.10787966893586379
0.06064915338911087
0.15360037586608905
0.07643314545847704
0.10849061566803589
-0.05032206525710989
0.030653118449797675
0.10895932254966345
-0.0916693169101344
0.05713708802039361
0.09351049649856488
-0.03130725257931336
-0.007878728062120937
0.18977059976171362
0.033257135621811096
-0.12477943506608907
0.022290604007260472
-0.16288460626308857
0.024962269625503474
-0.09545561031297681
0.04173842463259136
0.03300587869289407
-0.04577952075593908
-0.04060960563851653
0.05361756116571308
-0.06333351873602182
0.0033617828700787974
0.015502686416319371
-0.05334970457660047
-0.0996749208731588
-0.008728811300491303
0.27188901384682135
-0.3716891236189085
0.1388595445144671
-0.0803038586621766
-0.11388574843535973
0.020070422770543522
0.21574574092480558
0.005627854782642172
0.1504098610565234
0.16642207419382093
-0.038722050521059155
0.18855420691322408
-0.0010789283305564887
-0.137186071571897
-0.1230700759893319
0.08611167231865728
0.08734085100632671
0.07813108750981984
-0.15090259384767796
0.029253848376047758
0.22931736843517606
0.0854739596224459
0.015103435684651018
0.2599517777393509
-0.03522235609850227
-0.17930835886054022
0.16522548685660274
0.050466787347734
-0.061737883874506475
-0.25081130524005396
0.005760414013799837
-0.028755056379021336
-0.0446827765304944
0.11654587791376803
0.018641311906684555
0.010424981936078444
-0.15164677094204293
0.06352057301692558
-0.036642805610578554
-0.17900918599081736
0.017185067515657976
0.010355284395091438
-0.052886728741083876
0.01966224415666762
0.018498198223947108
-0.001697853897280374
-0.10385341744126494
0.03150868241525617
0.10350401030952097
0.01853416996062281
0.018862985823673052
0.03545122140635373
-0.02197280732083793
-0.0788104940330621
0.06426648990176538
0.022947937712615392
0.06594033843693031
-0.09686953050757705
0.03728663648288298
-0.17899482042219197
-0.04046969805046619
-0.03753887825952366
-0.13630566570812075
0.2010867617759563
0.04573611290696341
-0.12897353355579422
0.05839909726244276
-0.47965453620934306
-0.22917722408970131
-0.08106754760082596
-0.23298265277599653
-0.4403041494975373
-0.07077290981524516
0.04098156562819144
0.26283399884690734
-0.2688305969247087
-0.19618559680209594
-0.3303556419203218
0.289972442048004
-0.05121680107622145
-0.03230923325334508
-0.04074916601953361
-0.35606392338711895
-0.12393740243522373
0.17668079880447066
-0.37332526109231573
0.18261802821071407
-0.29470607997030074
0.02560874564721535
0.07550399289829164
-0.04117555649342487
0.05711448321105489
-0.06836312667375029
-0.0663355804144303
-0.24048909663692755
-0.23629321424036664
-0.1577841092195681
-0.07217091093181506
0.0862889833614924
0.16755605373875054
-0.19167299840969632
0.0917224795651639
-0.18388959870861085
0.11053004349327512
0.07815066988731456
-0.09320160507517788
-0.13281633655823408
0.01404268191566164
0.012739897234919154
0.014810423660332724
0.012863443542771493
0.040216787209521467
0.0010470732768162864
-0.158252640140979
0.00047524135045783067
0.07639357416495451
-0.1063619087651963
0.017381585305997288
0.009531587159553311
0.09176967211268489
0.08488956406832927
-0.05544503694140689
-0.08091124700114777
-0.09723022264458214
-0.07076183099041612
0.07214911329812124
-0.06890636152609832
-0.01398816415484212
0.07122302746255343
0.11332990655558002
0.017626469552766377
-0.0808931490255973
0.12639397940966704
-0.06468192213051176
0.05456907000524563
0.019304504335894063
-0.1252704125592419
-0.07002894585590078
-0.17343090601833958
0.10624160423751627
-0.12562399539838254
-0.06546409428974248
-0.11460437011089625
0.04440006697341331
-0.1018024315445146
0.027721893454056987
-0.03910053431996748
0.19179818067958426
-0.042723987554904
0.21538116108443037
0.045930272316822854
-0.16573706843663286
0.01373520853632793
0.09852038301552643
-0.03651313367490991
0.06980133376102345
-0.0156560427607544
-0.11711998608207605
0.03987269689475953
-0.0037564763940078558
-0.09745448798526615
0.1287357896527875
0.005384021187806416
0.03219954525927474
0.12708176349047842
0.037718794162026135
-0.16494098731124743
0.03457625391244383
-0.1722074175065143
-0.19065708632258418
0.1598789816033462
0.06142167007397637
0.15069339602202622
-0.08983888063819583
-0.049345533991899185
-0.08782827178648865
0.11117695654137895
-0.0167892923434569
0.14896497445690007
0.040641388036155156
-0.1658433163692919
-0.17940138748832946
0.0913918030816059
-0.12477479581369864
-0.020189733314360626
0.1447709592831815
0.06164324699471026
-0.008274566372206495
-0.2908225545105034
-0.02512269170603327
